<?xml version="1.0"?>
<!--
    Stump-based 24x24 discrete(?) adaboost frontal face detector.
    Created by Rainer Lienhart.

////////////////////////////////////////////////////////////////////////////////////////

  IMPORTANT: READ BEFORE DOWNLOADING, COPYING, INSTALLING OR USING.

  By downloading, copying, installing or using the software you agree to this license.
  If you do not agree to this license, do not download, install,
  copy or use the software.


                        Intel License Agreement
                For Open Source Computer Vision Library

 Copyright (C) 2000, Intel Corporation, all rights reserved.
 Third party copyrights are property of their respective owners.

 Redistribution and use in source and binary forms, with or without modification,
 are permitted provided that the following conditions are met:

   * Redistribution's of source code must retain the above copyright notice,
     this list of conditions and the following disclaimer.

   * Redistribution's in binary form must reproduce the above copyright notice,
     this list of conditions and the following disclaimer in the documentation
     and/or other materials provided with the distribution.

   * The name of Intel Corporation may not be used to endorse or promote products
     derived from this software without specific prior written permission.

 This software is provided by the copyright holders and contributors "as is" and
 any express or implied warranties, including, but not limited to, the implied
 warranties of merchantability and fitness for a particular purpose are disclaimed.
 In no event shall the Intel Corporation or contributors be liable for any direct,
 indirect, incidental, special, exemplary, or consequential damages
 (including, but not limited to, procurement of substitute goods or services;
 loss of use, data, or profits; or business interruption) however caused
 and on any theory of liability, whether in contract, strict liability,
 or tort (including negligence or otherwise) arising in any way out of
 the use of this software, even if advised of the possibility of such damage.
-->
<opencv_storage>
<cascade type_id="opencv-cascade-classifier"><stageType>BOOST</stageType>
  <featureType>HAAR</featureType>
  <height>24</height>
  <width>24</width>
  <stageParams>
    <maxWeakCount>211</maxWeakCount></stageParams>
  <featureParams>
    <maxCatCount>0</maxCatCount></featureParams>
  <stageNum>5</stageNum>
  <stages>
    <_>
      <maxWeakCount>9</maxWeakCount>
      <stageThreshold>-5.0425500869750977e+00</stageThreshold>
      <weakClassifiers>
        <_>
          <internalNodes>
            0 -1 0 -3.1511999666690826e-02</internalNodes>
          <leafValues>
            2.0875380039215088e+00 -2.2172100543975830e+00</leafValues></_>
        <_>
          <internalNodes>
            0 -1 1 1.2396000325679779e-02</internalNodes>
          <leafValues>
            -1.8633940219879150e+00 1.3272049427032471e+00</leafValues></_>
        <_>
          <internalNodes>
            0 -1 2 2.1927999332547188e-02</internalNodes>
          <leafValues>
            -1.5105249881744385e+00 1.0625729560852051e+00</leafValues></_>
        <_>
          <internalNodes>
            0 -1 3 5.7529998011887074e-03</internalNodes>
          <leafValues>
            -8.7463897466659546e-01 1.1760339736938477e+00</leafValues></_>
        <_>
          <internalNodes>
            0 -1 4 1.5014000236988068e-02</internalNodes>
          <leafValues>
            -7.7945697307586670e-01 1.2608419656753540e+00</leafValues></_>
        <_>
          <internalNodes>
            0 -1 5 9.9371001124382019e-02</internalNodes>
          <leafValues>
            5.5751299858093262e-01 -1.8743000030517578e+00</leafValues></_>
        <_>
          <internalNodes>
            0 -1 6 2.7340000960975885e-03</internalNodes>
          <leafValues>
            -1.6911929845809937e+00 4.4009700417518616e-01</leafValues></_>
        <_>
          <internalNodes>
            0 -1 7 -1.8859000876545906e-02</internalNodes>
          <leafValues>
            -1.4769539833068848e+00 4.4350099563598633e-01</leafValues></_>
        <_>
          <internalNodes>
            0 -1 8 5.9739998541772366e-03</internalNodes>
          <leafValues>
            -8.5909199714660645e-01 8.5255599021911621e-01</leafValues></_></weakClassifiers></_>
    <_>
      <maxWeakCount>16</maxWeakCount>
      <stageThreshold>-4.9842400550842285e+00</stageThreshold>
      <weakClassifiers>
        <_>
          <internalNodes>
            0 -1 9 -2.1110000088810921e-02</internalNodes>
          <leafValues>
            1.2435649633407593e+00 -1.5713009834289551e+00</leafValues></_>
        <_>
          <internalNodes>
            0 -1 10 2.0355999469757080e-02</internalNodes>
          <leafValues>
            -1.6204780340194702e+00 1.1817760467529297e+00</leafValues></_>
        <_>
          <internalNodes>
            0 -1 11 2.1308999508619308e-02</internalNodes>
          <leafValues>
            -1.9415930509567261e+00 7.0069098472595215e-01</leafValues></_>
        <_>
          <internalNodes>
            0 -1 12 9.1660000383853912e-02</internalNodes>
          <leafValues>
            -5.5670100450515747e-01 1.7284419536590576e+00</leafValues></_>
        <_>
          <internalNodes>
            0 -1 13 3.6288000643253326e-02</internalNodes>
          <leafValues>
            2.6763799786567688e-01 -2.1831810474395752e+00</leafValues></_>
        <_>
          <internalNodes>
            0 -1 14 -1.9109999760985374e-02</internalNodes>
          <leafValues>
            -2.6730210781097412e+00 4.5670801401138306e-01</leafValues></_>
        <_>
          <internalNodes>
            0 -1 15 8.2539999857544899e-03</internalNodes>
          <leafValues>
            -1.0852910280227661e+00 5.3564202785491943e-01</leafValues></_>
        <_>
          <internalNodes>
            0 -1 16 1.8355000764131546e-02</internalNodes>
          <leafValues>
            -3.5200199484825134e-01 9.3339198827743530e-01</leafValues></_>
        <_>
          <internalNodes>
            0 -1 17 -7.0569999516010284e-03</internalNodes>
          <leafValues>
            9.2782098054885864e-01 -6.6349899768829346e-01</leafValues></_>
        <_>
          <internalNodes>
            0 -1 18 -9.8770000040531158e-03</internalNodes>
          <leafValues>
            1.1577470302581787e+00 -2.9774799942970276e-01</leafValues></_>
        <_>
          <internalNodes>
            0 -1 19 1.5814000740647316e-02</internalNodes>
          <leafValues>
            -4.1960600018501282e-01 1.3576040267944336e+00</leafValues></_>
        <_>
          <internalNodes>
            0 -1 20 -2.0700000226497650e-02</internalNodes>
          <leafValues>
            1.4590020179748535e+00 -1.9739399850368500e-01</leafValues></_>
        <_>
          <internalNodes>
            0 -1 21 -1.3760800659656525e-01</internalNodes>
          <leafValues>
            1.1186759471893311e+00 -5.2915501594543457e-01</leafValues></_>
        <_>
          <internalNodes>
            0 -1 22 1.4318999834358692e-02</internalNodes>
          <leafValues>
            -3.5127198696136475e-01 1.1440860033035278e+00</leafValues></_>
        <_>
          <internalNodes>
            0 -1 23 1.0253000073134899e-02</internalNodes>
          <leafValues>
            -6.0850602388381958e-01 7.7098500728607178e-01</leafValues></_>
        <_>
          <internalNodes>
            0 -1 24 9.1508001089096069e-02</internalNodes>
          <leafValues>
            3.8817799091339111e-01 -1.5122940540313721e+00</leafValues></_></weakClassifiers></_>
    <_>
      <maxWeakCount>27</maxWeakCount>
      <stageThreshold>-4.6551899909973145e+00</stageThreshold>
      <weakClassifiers>
        <_>
          <internalNodes>
            0 -1 25 6.9747000932693481e-02</internalNodes>
          <leafValues>
            -1.0130879878997803e+00 1.4687349796295166e+00</leafValues></_>
        <_>
          <internalNodes>
            0 -1 26 3.1502999365329742e-02</internalNodes>
          <leafValues>
            -1.6463639736175537e+00 1.0000629425048828e+00</leafValues></_>
        <_>
          <internalNodes>
            0 -1 27 1.4260999858379364e-02</internalNodes>
          <leafValues>
            4.6480301022529602e-01 -1.5959889888763428e+00</leafValues></_>
        <_>
          <internalNodes>
            0 -1 28 1.4453000389039516e-02</internalNodes>
          <leafValues>
            -6.5511900186538696e-01 8.3021801710128784e-01</leafValues></_>
        <_>
          <internalNodes>
            0 -1 29 -3.0509999487549067e-03</internalNodes>
          <leafValues>
            -1.3982310295104980e+00 4.2550599575042725e-01</leafValues></_>
        <_>
          <internalNodes>
            0 -1 30 3.2722998410463333e-02</internalNodes>
          <leafValues>
            -5.0702601671218872e-01 1.0526109933853149e+00</leafValues></_>
        <_>
          <internalNodes>
            0 -1 31 -7.2960001416504383e-03</internalNodes>
          <leafValues>
            3.6356899142265320e-01 -1.3464889526367188e+00</leafValues></_>
        <_>
          <internalNodes>
            0 -1 32 5.0425000488758087e-02</internalNodes>
          <leafValues>
            -3.0461400747299194e-01 1.4504129886627197e+00</leafValues></_>
        <_>
          <internalNodes>
            0 -1 33 4.6879000961780548e-02</internalNodes>
          <leafValues>
            -4.0286201238632202e-01 1.2145609855651855e+00</leafValues></_>
        <_>
          <internalNodes>
            0 -1 34 -6.9358997046947479e-02</internalNodes>
          <leafValues>
            1.0539360046386719e+00 -4.5719701051712036e-01</leafValues></_>
        <_>
          <internalNodes>
            0 -1 35 -4.9033999443054199e-02</internalNodes>
          <leafValues>
            -1.6253089904785156e+00 1.5378999710083008e-01</leafValues></_>
        <_>
          <internalNodes>
            0 -1 36 8.4827996790409088e-02</internalNodes>
          <leafValues>
            2.8402999043464661e-01 -1.5662059783935547e+00</leafValues></_>
        <_>
          <internalNodes>
            0 -1 37 -1.7229999648407102e-03</internalNodes>
          <leafValues>
            -1.0147459506988525e+00 2.3294800519943237e-01</leafValues></_>
        <_>
          <internalNodes>
            0 -1 38 1.1562199890613556e-01</internalNodes>
          <leafValues>
            -1.6732899844646454e-01 1.2804069519042969e+00</leafValues></_>
        <_>
          <internalNodes>
            0 -1 39 -5.1279999315738678e-02</internalNodes>
          <leafValues>
            1.5162390470504761e+00 -3.0271100997924805e-01</leafValues></_>
        <_>
          <internalNodes>
            0 -1 40 -4.2706999927759171e-02</internalNodes>
          <leafValues>
            1.7631920576095581e+00 -5.1832001656293869e-02</leafValues></_>
        <_>
          <internalNodes>
            0 -1 41 3.7178099155426025e-01</internalNodes>
          <leafValues>
            -3.1389200687408447e-01 1.5357979536056519e+00</leafValues></_>
        <_>
          <internalNodes>
            0 -1 42 1.9412999972701073e-02</internalNodes>
          <leafValues>
            -1.0017599910497665e-01 9.3655401468276978e-01</leafValues></_>
        <_>
          <internalNodes>
            0 -1 43 1.7439000308513641e-02</internalNodes>
          <leafValues>
            -4.0379899740219116e-01 9.6293002367019653e-01</leafValues></_>
        <_>
          <internalNodes>
            0 -1 44 3.9638999849557877e-02</internalNodes>
          <leafValues>
            1.7039099335670471e-01 -2.9602990150451660e+00</leafValues></_>
        <_>
          <internalNodes>
            0 -1 45 -9.1469995677471161e-03</internalNodes>
          <leafValues>
            8.8786798715591431e-01 -4.3818700313568115e-01</leafValues></_>
        <_>
          <internalNodes>
            0 -1 46 1.7219999572262168e-03</internalNodes>
          <leafValues>
            -3.7218600511550903e-01 4.0018901228904724e-01</leafValues></_>
        <_>
          <internalNodes>
            0 -1 47 3.0231000855565071e-02</internalNodes>
          <leafValues>
            6.5924003720283508e-02 -2.6469180583953857e+00</leafValues></_>
        <_>
          <internalNodes>
            0 -1 48 -7.8795999288558960e-02</internalNodes>
          <leafValues>
            -1.7491459846496582e+00 2.8475299477577209e-01</leafValues></_>
        <_>
          <internalNodes>
            0 -1 49 2.1110000088810921e-03</internalNodes>
          <leafValues>
            -9.3908101320266724e-01 2.3205199837684631e-01</leafValues></_>
        <_>
          <internalNodes>
            0 -1 50 2.7091000229120255e-02</internalNodes>
          <leafValues>
            -5.2664000540971756e-02 1.0756820440292358e+00</leafValues></_>
        <_>
          <internalNodes>
            0 -1 51 -4.4964998960494995e-02</internalNodes>
          <leafValues>
            -1.8294479846954346e+00 9.9561996757984161e-02</leafValues></_></weakClassifiers></_>
    <_>
      <maxWeakCount>32</maxWeakCount>
      <stageThreshold>-4.4531588554382324e+00</stageThreshold>
      <weakClassifiers>
        <_>
          <internalNodes>
            0 -1 52 -6.5701000392436981e-02</internalNodes>
          <leafValues>
            1.1558510065078735e+00 -1.0716359615325928e+00</leafValues></_>
        <_>
          <internalNodes>
            0 -1 53 1.5839999541640282e-02</internalNodes>
          <leafValues>
            -1.5634720325469971e+00 7.6877099275588989e-01</leafValues></_>
        <_>
          <internalNodes>
            0 -1 54 1.4570899307727814e-01</internalNodes>
          <leafValues>
            -5.7450097799301147e-01 1.3808720111846924e+00</leafValues></_>
        <_>
          <internalNodes>
            0 -1 55 6.1389999464154243e-03</internalNodes>
          <leafValues>
            -1.4570560455322266e+00 5.1610302925109863e-01</leafValues></_>
        <_>
          <internalNodes>
            0 -1 56 6.7179999314248562e-03</internalNodes>
          <leafValues>
            -8.3533602952957153e-01 5.8522200584411621e-01</leafValues></_>
        <_>
          <internalNodes>
            0 -1 57 1.8518000841140747e-02</internalNodes>
          <leafValues>
            -3.1312099099159241e-01 1.1696679592132568e+00</leafValues></_>
        <_>
          <internalNodes>
            0 -1 58 1.9958000630140305e-02</internalNodes>
          <leafValues>
            -4.3442600965499878e-01 9.5446902513504028e-01</leafValues></_>
        <_>
          <internalNodes>
            0 -1 59 -2.7755001187324524e-01</internalNodes>
          <leafValues>
            1.4906179904937744e+00 -1.3815900683403015e-01</leafValues></_>
        <_>
          <internalNodes>
            0 -1 60 9.1859996318817139e-03</internalNodes>
          <leafValues>
            -9.6361500024795532e-01 2.7665498852729797e-01</leafValues></_>
        <_>
          <internalNodes>
            0 -1 61 -3.7737999111413956e-02</internalNodes>
          <leafValues>
            -2.4464108943939209e+00 2.3619599640369415e-01</leafValues></_>
        <_>
          <internalNodes>
            0 -1 62 1.8463000655174255e-02</internalNodes>
          <leafValues>
            1.7539200186729431e-01 -1.3423130512237549e+00</leafValues></_>
        <_>
          <internalNodes>
            0 -1 63 -1.1114999651908875e-02</internalNodes>
          <leafValues>
            4.8710799217224121e-01 -8.9851897954940796e-01</leafValues></_>
        <_>
          <internalNodes>
            0 -1 64 3.3927999436855316e-02</internalNodes>
          <leafValues>
            1.7874200642108917e-01 -1.6342279911041260e+00</leafValues></_>
        <_>
          <internalNodes>
            0 -1 65 -3.5649001598358154e-02</internalNodes>
          <leafValues>
            -1.9607399702072144e+00 1.8102499842643738e-01</leafValues></_>
        <_>
          <internalNodes>
            0 -1 66 -1.1438000015914440e-02</internalNodes>
          <leafValues>
            9.9010699987411499e-01 -3.8103199005126953e-01</leafValues></_>
        <_>
          <internalNodes>
            0 -1 67 -6.5236002206802368e-02</internalNodes>
          <leafValues>
            -2.5794160366058350e+00 2.4753600358963013e-01</leafValues></_>
        <_>
          <internalNodes>
            0 -1 68 -4.2272001504898071e-02</internalNodes>
          <leafValues>
            1.4411840438842773e+00 -2.9508298635482788e-01</leafValues></_>
        <_>
          <internalNodes>
            0 -1 69 1.9219999667257071e-03</internalNodes>
          <leafValues>
            -4.9608600139617920e-01 6.3173598051071167e-01</leafValues></_>
        <_>
          <internalNodes>
            0 -1 70 -1.2921799719333649e-01</internalNodes>
          <leafValues>
            -2.3314270973205566e+00 5.4496999830007553e-02</leafValues></_>
        <_>
          <internalNodes>
            0 -1 71 2.2931000217795372e-02</internalNodes>
          <leafValues>
            -8.4447097778320312e-01 3.8738098740577698e-01</leafValues></_>
        <_>
          <internalNodes>
            0 -1 72 -3.4120000898838043e-02</internalNodes>
          <leafValues>
            -1.4431500434875488e+00 9.8422996699810028e-02</leafValues></_>
        <_>
          <internalNodes>
            0 -1 73 2.6223000138998032e-02</internalNodes>
          <leafValues>
            1.8223099410533905e-01 -1.2586519718170166e+00</leafValues></_>
        <_>
          <internalNodes>
            0 -1 74 2.2236999124288559e-02</internalNodes>
          <leafValues>
            6.9807998836040497e-02 -2.3820950984954834e+00</leafValues></_>
        <_>
          <internalNodes>
            0 -1 75 -5.8240001089870930e-03</internalNodes>
          <leafValues>
            3.9332500100135803e-01 -2.7542799711227417e-01</leafValues></_>
        <_>
          <internalNodes>
            0 -1 76 4.3653000146150589e-02</internalNodes>
          <leafValues>
            1.4832699298858643e-01 -1.1368780136108398e+00</leafValues></_>
        <_>
          <internalNodes>
            0 -1 77 5.7266999036073685e-02</internalNodes>
          <leafValues>
            2.4628099799156189e-01 -1.2687400579452515e+00</leafValues></_>
        <_>
          <internalNodes>
            0 -1 78 2.3409998975694180e-03</internalNodes>
          <leafValues>
            -7.5448900461196899e-01 2.7163800597190857e-01</leafValues></_>
        <_>
          <internalNodes>
            0 -1 79 1.2996000237762928e-02</internalNodes>
          <leafValues>
            -3.6394900083541870e-01 7.0959198474884033e-01</leafValues></_>
        <_>
          <internalNodes>
            0 -1 80 -2.6517000049352646e-02</internalNodes>
          <leafValues>
            -2.3221859931945801e+00 3.5744000226259232e-02</leafValues></_>
        <_>
          <internalNodes>
            0 -1 81 -5.8400002308189869e-03</internalNodes>
          <leafValues>
            4.2194300889968872e-01 -4.8184998333454132e-02</leafValues></_>
        <_>
          <internalNodes>
            0 -1 82 -1.6568999737501144e-02</internalNodes>
          <leafValues>
            1.1099940538406372e+00 -3.4849700331687927e-01</leafValues></_>
        <_>
          <internalNodes>
            0 -1 83 -6.8157002329826355e-02</internalNodes>
          <leafValues>
            -3.3269989490509033e+00 2.1299000084400177e-01</leafValues></_></weakClassifiers></_>
    <_>
      <maxWeakCount>52</maxWeakCount>
      <stageThreshold>-4.3864588737487793e+00</stageThreshold>
      <weakClassifiers>
        <_>
          <internalNodes>
            0 -1 84 3.9974000304937363e-02</internalNodes>
          <leafValues>
            -1.2173449993133545e+00 1.0826710462570190e+00</leafValues></_>
        <_>
          <internalNodes>
            0 -1 85 1.8819500505924225e-01</internalNodes>
          <leafValues>
            -4.8289400339126587e-01 1.4045250415802002e+00</leafValues></_>
        <_>
          <internalNodes>
            0 -1 86 7.8027002513408661e-02</internalNodes>
          <leafValues>
            -1.0782150030136108e+00 7.4040299654006958e-01</leafValues></_>
        <_>
          <internalNodes>
            0 -1 87 1.1899999663000926e-04</internalNodes>
          <leafValues>
            -1.2019979953765869e+00 3.7749201059341431e-01</leafValues></_>
        <_>
          <internalNodes>
            0 -1 88 8.5056997835636139e-02</internalNodes>
          <leafValues>
            -4.3939098715782166e-01 1.2647340297698975e+00</leafValues></_>
        <_>
          <internalNodes>
            0 -1 89 8.9720003306865692e-03</internalNodes>
          <leafValues>
            -1.8440499901771545e-01 4.5726400613784790e-01</leafValues></_>
        <_>
          <internalNodes>
            0 -1 90 8.8120000436902046e-03</internalNodes>
          <leafValues>
            3.0396699905395508e-01 -9.5991098880767822e-01</leafValues></_>
        <_>
          <internalNodes>
            0 -1 91 -2.3507999256253242e-02</internalNodes>
          <leafValues>
            1.2487529516220093e+00 4.6227999031543732e-02</leafValues></_>
        <_>
          <internalNodes>
            0 -1 92 7.0039997808635235e-03</internalNodes>
          <leafValues>
            -5.9442102909088135e-01 5.3963297605514526e-01</leafValues></_>
        <_>
          <internalNodes>
            0 -1 93 3.3851999789476395e-02</internalNodes>
          <leafValues>
            2.8496098518371582e-01 -1.4895249605178833e+00</leafValues></_>
        <_>
          <internalNodes>
            0 -1 94 -3.2530000898987055e-03</internalNodes>
          <leafValues>
            4.8120799660682678e-01 -5.2712398767471313e-01</leafValues></_>
        <_>
          <internalNodes>
            0 -1 95 2.9097000136971474e-02</internalNodes>
          <leafValues>
            2.6743900775909424e-01 -1.6007850170135498e+00</leafValues></_>
        <_>
          <internalNodes>
            0 -1 96 -8.4790000692009926e-03</internalNodes>
          <leafValues>
            -1.3107639551162720e+00 1.5243099629878998e-01</leafValues></_>
        <_>
          <internalNodes>
            0 -1 97 -1.0795000009238720e-02</internalNodes>
          <leafValues>
            4.5613598823547363e-01 -7.2050899267196655e-01</leafValues></_>
        <_>
          <internalNodes>
            0 -1 98 -2.4620000272989273e-02</internalNodes>
          <leafValues>
            -1.7320619821548462e+00 6.8363003432750702e-02</leafValues></_>
        <_>
          <internalNodes>
            0 -1 99 3.7380000576376915e-03</internalNodes>
          <leafValues>
            -1.9303299486637115e-01 6.8243497610092163e-01</leafValues></_>
        <_>
          <internalNodes>
            0 -1 100 -1.2264000251889229e-02</internalNodes>
          <leafValues>
            -1.6095290184020996e+00 7.5268000364303589e-02</leafValues></_>
        <_>
          <internalNodes>
            0 -1 101 -4.8670000396668911e-03</internalNodes>
          <leafValues>
            7.4286502599716187e-01 -2.1510200202465057e-01</leafValues></_>
        <_>
          <internalNodes>
            0 -1 102 7.6725997030735016e-02</internalNodes>
          <leafValues>
            -2.6835098862648010e-01 1.3094140291213989e+00</leafValues></_>
        <_>
          <internalNodes>
            0 -1 103 2.8578000143170357e-02</internalNodes>
          <leafValues>
            -5.8793000876903534e-02 1.2196329832077026e+00</leafValues></_>
        <_>
          <internalNodes>
            0 -1 104 1.9694000482559204e-02</internalNodes>
          <leafValues>
            -3.5142898559570312e-01 8.4926998615264893e-01</leafValues></_>
        <_>
          <internalNodes>
            0 -1 105 -2.9093999415636063e-02</internalNodes>
          <leafValues>
            -1.0507299900054932e+00 2.9806300997734070e-01</leafValues></_>
        <_>
          <internalNodes>
            0 -1 106 -2.9144000262022018e-02</internalNodes>
          <leafValues>
            8.2547801733016968e-01 -3.2687199115753174e-01</leafValues></_>
        <_>
          <internalNodes>
            0 -1 107 1.9741000607609749e-02</internalNodes>
          <leafValues>
            2.0452600717544556e-01 -8.3760201930999756e-01</leafValues></_>
        <_>
          <internalNodes>
            0 -1 108 4.3299999088048935e-03</internalNodes>
          <leafValues>
            2.0577900111675262e-01 -6.6829800605773926e-01</leafValues></_>
        <_>
          <internalNodes>
            0 -1 109 -3.5500999540090561e-02</internalNodes>
          <leafValues>
            -1.2969900369644165e+00 1.3897499442100525e-01</leafValues></_>
        <_>
          <internalNodes>
            0 -1 110 -1.6172999516129494e-02</internalNodes>
          <leafValues>
            -1.3110569715499878e+00 7.5751997530460358e-02</leafValues></_>
        <_>
          <internalNodes>
            0 -1 111 -2.2151000797748566e-02</internalNodes>
          <leafValues>
            -1.0524389743804932e+00 1.9241100549697876e-01</leafValues></_>
        <_>
          <internalNodes>
            0 -1 112 -2.2707000374794006e-02</internalNodes>
          <leafValues>
            -1.3735309839248657e+00 6.6780999302864075e-02</leafValues></_>
        <_>
          <internalNodes>
            0 -1 113 1.6607999801635742e-02</internalNodes>
          <leafValues>
            -3.7135999649763107e-02 7.7846401929855347e-01</leafValues></_>
        <_>
          <internalNodes>
            0 -1 114 -1.3309000059962273e-02</internalNodes>
          <leafValues>
            -9.9850702285766602e-01 1.2248100340366364e-01</leafValues></_>
        <_>
          <internalNodes>
            0 -1 115 -3.3732000738382339e-02</internalNodes>
          <leafValues>
            1.4461359977722168e+00 1.3151999562978745e-02</leafValues></_>
        <_>
          <internalNodes>
            0 -1 116 1.6935000196099281e-02</internalNodes>
          <leafValues>
            -3.7121298909187317e-01 5.2842199802398682e-01</leafValues></_>
        <_>
          <internalNodes>
            0 -1 117 3.3259999472647905e-03</internalNodes>
          <leafValues>
            -5.7568502426147461e-01 3.9261901378631592e-01</leafValues></_>
        <_>
          <internalNodes>
            0 -1 118 8.3644002676010132e-02</internalNodes>
          <leafValues>
            1.6116000711917877e-02 -2.1173279285430908e+00</leafValues></_>
        <_>
          <internalNodes>
            0 -1 119 2.5785198807716370e-01</internalNodes>
          <leafValues>
            -8.1609003245830536e-02 9.8782497644424438e-01</leafValues></_>
        <_>
          <internalNodes>
            0 -1 120 -3.6566998809576035e-02</internalNodes>
          <leafValues>
            -1.1512110233306885e+00 9.6459001302719116e-02</leafValues></_>
        <_>
          <internalNodes>
            0 -1 121 -1.6445999965071678e-02</internalNodes>
          <leafValues>
            3.7315499782562256e-01 -1.4585399627685547e-01</leafValues></_>
        <_>
          <internalNodes>
            0 -1 122 -3.7519999314099550e-03</internalNodes>
          <leafValues>
            2.6179298758506775e-01 -5.8156698942184448e-01</leafValues></_>
        <_>
          <internalNodes>
            0 -1 123 -6.3660000450909138e-03</internalNodes>
          <leafValues>
            7.5477397441864014e-01 -1.7055200040340424e-01</leafValues></_>
        <_>
          <internalNodes>
            0 -1 124 -3.8499999791383743e-03</internalNodes>
          <leafValues>
            2.2653999924659729e-01 -6.3876402378082275e-01</leafValues></_>
        <_>
          <internalNodes>
            0 -1 125 -4.5494001358747482e-02</internalNodes>
          <leafValues>
            -1.2640299797058105e+00 2.5260698795318604e-01</leafValues></_>
        <_>
          <internalNodes>
            0 -1 126 -2.3941000923514366e-02</internalNodes>
          <leafValues>
            8.7068402767181396e-01 -2.7104699611663818e-01</leafValues></_>
        <_>
          <internalNodes>
            0 -1 127 -7.7558003365993500e-02</internalNodes>
          <leafValues>
            -1.3901610374450684e+00 2.3612299561500549e-01</leafValues></_>
        <_>
          <internalNodes>
            0 -1 128 2.3614000529050827e-02</internalNodes>
          <leafValues>
            6.6140003502368927e-02 -1.2645419836044312e+00</leafValues></_>
        <_>
          <internalNodes>
            0 -1 129 -2.5750000495463610e-03</internalNodes>
          <leafValues>
            -5.3841698169708252e-01 3.0379098653793335e-01</leafValues></_>
        <_>
          <internalNodes>
            0 -1 130 1.2010800093412399e-01</internalNodes>
          <leafValues>
            -3.5343000292778015e-01 5.2866202592849731e-01</leafValues></_>
        <_>
          <internalNodes>
            0 -1 131 2.2899999748915434e-03</internalNodes>
          <leafValues>
            -5.8701997995376587e-01 2.4061000347137451e-01</leafValues></_>
        <_>
          <internalNodes>
            0 -1 132 6.9716997444629669e-02</internalNodes>
          <leafValues>
            -3.3348900079727173e-01 5.1916301250457764e-01</leafValues></_>
        <_>
          <internalNodes>
            0 -1 133 -4.6670001000165939e-02</internalNodes>
          <leafValues>
            6.9795399904251099e-01 -1.4895999804139137e-02</leafValues></_>
        <_>
          <internalNodes>
            0 -1 134 -5.0129000097513199e-02</internalNodes>
          <leafValues>
            8.6146199703216553e-01 -2.5986000895500183e-01</leafValues></_>
        <_>
          <internalNodes>
            0 -1 135 3.0147999525070190e-02</internalNodes>
          <leafValues>
            1.9332799315452576e-01 -5.9131097793579102e-01</leafValues></_></weakClassifiers></_></stages>
  <features>
    <_>
      <rects>
        <_>
          6 4 12 9 -1.</_>
        <_>
          6 7 12 3 3.</_></rects></_>
    <_>
      <rects>
        <_>
          6 4 12 7 -1.</_>
        <_>
          10 4 4 7 3.</_></rects></_>
    <_>
      <rects>
        <_>
          3 9 18 9 -1.</_>
        <_>
          3 12 18 3 3.</_></rects></_>
    <_>
      <rects>
        <_>
          8 18 9 6 -1.</_>
        <_>
          8 20 9 2 3.</_></rects></_>
    <_>
      <rects>
        <_>
          3 5 4 19 -1.</_>
        <_>
          5 5 2 19 2.</_></rects></_>
    <_>
      <rects>
        <_>
          6 5 12 16 -1.</_>
        <_>
          6 13 12 8 2.</_></rects></_>
    <_>
      <rects>
        <_>
          5 8 12 6 -1.</_>
        <_>
          5 11 12 3 2.</_></rects></_>
    <_>
      <rects>
        <_>
          11 14 4 10 -1.</_>
        <_>
          11 19 4 5 2.</_></rects></_>
    <_>
      <rects>
        <_>
          4 0 7 6 -1.</_>
        <_>
          4 3 7 3 2.</_></rects></_>
    <_>
      <rects>
        <_>
          6 6 12 6 -1.</_>
        <_>
          6 8 12 2 3.</_></rects></_>
    <_>
      <rects>
        <_>
          6 4 12 7 -1.</_>
        <_>
          10 4 4 7 3.</_></rects></_>
    <_>
      <rects>
        <_>
          1 8 19 12 -1.</_>
        <_>
          1 12 19 4 3.</_></rects></_>
    <_>
      <rects>
        <_>
          0 2 24 3 -1.</_>
        <_>
          8 2 8 3 3.</_></rects></_>
    <_>
      <rects>
        <_>
          9 9 6 15 -1.</_>
        <_>
          9 14 6 5 3.</_></rects></_>
    <_>
      <rects>
        <_>
          5 6 14 10 -1.</_>
        <_>
          5 11 14 5 2.</_></rects></_>
    <_>
      <rects>
        <_>
          5 0 14 9 -1.</_>
        <_>
          5 3 14 3 3.</_></rects></_>
    <_>
      <rects>
        <_>
          13 11 9 6 -1.</_>
        <_>
          16 11 3 6 3.</_></rects></_>
    <_>
      <rects>
        <_>
          7 5 6 10 -1.</_>
        <_>
          9 5 2 10 3.</_></rects></_>
    <_>
      <rects>
        <_>
          10 8 6 10 -1.</_>
        <_>
          12 8 2 10 3.</_></rects></_>
    <_>
      <rects>
        <_>
          2 5 4 9 -1.</_>
        <_>
          4 5 2 9 2.</_></rects></_>
    <_>
      <rects>
        <_>
          18 0 6 11 -1.</_>
        <_>
          20 0 2 11 3.</_></rects></_>
    <_>
      <rects>
        <_>
          0 6 24 13 -1.</_>
        <_>
          8 6 8 13 3.</_></rects></_>
    <_>
      <rects>
        <_>
          9 6 6 9 -1.</_>
        <_>
          11 6 2 9 3.</_></rects></_>
    <_>
      <rects>
        <_>
          7 18 10 6 -1.</_>
        <_>
          7 20 10 2 3.</_></rects></_>
    <_>
      <rects>
        <_>
          5 7 14 12 -1.</_>
        <_>
          5 13 14 6 2.</_></rects></_>
    <_>
      <rects>
        <_>
          0 3 24 3 -1.</_>
        <_>
          8 3 8 3 3.</_></rects></_>
    <_>
      <rects>
        <_>
          5 8 15 6 -1.</_>
        <_>
          5 11 15 3 2.</_></rects></_>
    <_>
      <rects>
        <_>
          9 6 5 14 -1.</_>
        <_>
          9 13 5 7 2.</_></rects></_>
    <_>
      <rects>
        <_>
          9 5 6 10 -1.</_>
        <_>
          11 5 2 10 3.</_></rects></_>
    <_>
      <rects>
        <_>
          6 6 3 12 -1.</_>
        <_>
          6 12 3 6 2.</_></rects></_>
    <_>
      <rects>
        <_>
          3 21 18 3 -1.</_>
        <_>
          9 21 6 3 3.</_></rects></_>
    <_>
      <rects>
        <_>
          5 6 13 6 -1.</_>
        <_>
          5 8 13 2 3.</_></rects></_>
    <_>
      <rects>
        <_>
          18 1 6 15 -1.</_>
        <_>
          18 1 3 15 2.</_></rects></_>
    <_>
      <rects>
        <_>
          1 1 6 15 -1.</_>
        <_>
          4 1 3 15 2.</_></rects></_>
    <_>
      <rects>
        <_>
          0 8 24 15 -1.</_>
        <_>
          8 8 8 15 3.</_></rects></_>
    <_>
      <rects>
        <_>
          5 6 14 12 -1.</_>
        <_>
          5 6 7 6 2.</_>
        <_>
          12 12 7 6 2.</_></rects></_>
    <_>
      <rects>
        <_>
          2 12 21 12 -1.</_>
        <_>
          2 16 21 4 3.</_></rects></_>
    <_>
      <rects>
        <_>
          8 1 4 10 -1.</_>
        <_>
          10 1 2 10 2.</_></rects></_>
    <_>
      <rects>
        <_>
          2 13 20 10 -1.</_>
        <_>
          2 13 10 10 2.</_></rects></_>
    <_>
      <rects>
        <_>
          0 1 6 13 -1.</_>
        <_>
          2 1 2 13 3.</_></rects></_>
    <_>
      <rects>
        <_>
          20 2 4 13 -1.</_>
        <_>
          20 2 2 13 2.</_></rects></_>
    <_>
      <rects>
        <_>
          0 5 22 19 -1.</_>
        <_>
          11 5 11 19 2.</_></rects></_>
    <_>
      <rects>
        <_>
          18 4 6 9 -1.</_>
        <_>
          20 4 2 9 3.</_></rects></_>
    <_>
      <rects>
        <_>
          0 3 6 11 -1.</_>
        <_>
          2 3 2 11 3.</_></rects></_>
    <_>
      <rects>
        <_>
          12 1 4 9 -1.</_>
        <_>
          12 1 2 9 2.</_></rects></_>
    <_>
      <rects>
        <_>
          0 6 19 3 -1.</_>
        <_>
          0 7 19 1 3.</_></rects></_>
    <_>
      <rects>
        <_>
          12 1 4 9 -1.</_>
        <_>
          12 1 2 9 2.</_></rects></_>
    <_>
      <rects>
        <_>
          8 1 4 9 -1.</_>
        <_>
          10 1 2 9 2.</_></rects></_>
    <_>
      <rects>
        <_>
          5 5 14 14 -1.</_>
        <_>
          12 5 7 7 2.</_>
        <_>
          5 12 7 7 2.</_></rects></_>
    <_>
      <rects>
        <_>
          1 10 18 2 -1.</_>
        <_>
          1 11 18 1 2.</_></rects></_>
    <_>
      <rects>
        <_>
          17 13 4 11 -1.</_>
        <_>
          17 13 2 11 2.</_></rects></_>
    <_>
      <rects>
        <_>
          0 4 6 9 -1.</_>
        <_>
          0 7 6 3 3.</_></rects></_>
    <_>
      <rects>
        <_>
          6 4 12 9 -1.</_>
        <_>
          6 7 12 3 3.</_></rects></_>
    <_>
      <rects>
        <_>
          6 5 12 6 -1.</_>
        <_>
          10 5 4 6 3.</_></rects></_>
    <_>
      <rects>
        <_>
          0 1 24 5 -1.</_>
        <_>
          8 1 8 5 3.</_></rects></_>
    <_>
      <rects>
        <_>
          4 10 18 6 -1.</_>
        <_>
          4 12 18 2 3.</_></rects></_>
    <_>
      <rects>
        <_>
          2 17 12 6 -1.</_>
        <_>
          2 17 6 3 2.</_>
        <_>
          8 20 6 3 2.</_></rects></_>
    <_>
      <rects>
        <_>
          19 3 4 13 -1.</_>
        <_>
          19 3 2 13 2.</_></rects></_>
    <_>
      <rects>
        <_>
          1 3 4 13 -1.</_>
        <_>
          3 3 2 13 2.</_></rects></_>
    <_>
      <rects>
        <_>
          0 1 24 23 -1.</_>
        <_>
          8 1 8 23 3.</_></rects></_>
    <_>
      <rects>
        <_>
          1 7 8 12 -1.</_>
        <_>
          1 11 8 4 3.</_></rects></_>
    <_>
      <rects>
        <_>
          14 7 3 14 -1.</_>
        <_>
          14 14 3 7 2.</_></rects></_>
    <_>
      <rects>
        <_>
          3 12 16 6 -1.</_>
        <_>
          3 12 8 3 2.</_>
        <_>
          11 15 8 3 2.</_></rects></_>
    <_>
      <rects>
        <_>
          6 6 12 6 -1.</_>
        <_>
          6 8 12 2 3.</_></rects></_>
    <_>
      <rects>
        <_>
          8 7 6 12 -1.</_>
        <_>
          8 13 6 6 2.</_></rects></_>
    <_>
      <rects>
        <_>
          15 15 9 6 -1.</_>
        <_>
          15 17 9 2 3.</_></rects></_>
    <_>
      <rects>
        <_>
          1 17 18 3 -1.</_>
        <_>
          1 18 18 1 3.</_></rects></_>
    <_>
      <rects>
        <_>
          4 4 16 12 -1.</_>
        <_>
          4 10 16 6 2.</_></rects></_>
    <_>
      <rects>
        <_>
          0 1 4 20 -1.</_>
        <_>
          2 1 2 20 2.</_></rects></_>
    <_>
      <rects>
        <_>
          3 0 18 2 -1.</_>
        <_>
          3 1 18 1 2.</_></rects></_>
    <_>
      <rects>
        <_>
          1 5 20 14 -1.</_>
        <_>
          1 5 10 7 2.</_>
        <_>
          11 12 10 7 2.</_></rects></_>
    <_>
      <rects>
        <_>
          5 8 14 12 -1.</_>
        <_>
          5 12 14 4 3.</_></rects></_>
    <_>
      <rects>
        <_>
          3 14 7 9 -1.</_>
        <_>
          3 17 7 3 3.</_></rects></_>
    <_>
      <rects>
        <_>
          14 15 9 6 -1.</_>
        <_>
          14 17 9 2 3.</_></rects></_>
    <_>
      <rects>
        <_>
          1 15 9 6 -1.</_>
        <_>
          1 17 9 2 3.</_></rects></_>
    <_>
      <rects>
        <_>
          11 6 8 10 -1.</_>
        <_>
          15 6 4 5 2.</_>
        <_>
          11 11 4 5 2.</_></rects></_>
    <_>
      <rects>
        <_>
          5 5 14 14 -1.</_>
        <_>
          5 5 7 7 2.</_>
        <_>
          12 12 7 7 2.</_></rects></_>
    <_>
      <rects>
        <_>
          6 0 12 5 -1.</_>
        <_>
          10 0 4 5 3.</_></rects></_>
    <_>
      <rects>
        <_>
          9 0 6 9 -1.</_>
        <_>
          9 3 6 3 3.</_></rects></_>
    <_>
      <rects>
        <_>
          9 6 6 9 -1.</_>
        <_>
          11 6 2 9 3.</_></rects></_>
    <_>
      <rects>
        <_>
          7 0 6 9 -1.</_>
        <_>
          9 0 2 9 3.</_></rects></_>
    <_>
      <rects>
        <_>
          10 6 6 9 -1.</_>
        <_>
          12 6 2 9 3.</_></rects></_>
    <_>
      <rects>
        <_>
          8 6 6 9 -1.</_>
        <_>
          10 6 2 9 3.</_></rects></_>
    <_>
      <rects>
        <_>
          3 8 18 4 -1.</_>
        <_>
          9 8 6 4 3.</_></rects></_>
    <_>
      <rects>
        <_>
          6 0 12 9 -1.</_>
        <_>
          6 3 12 3 3.</_></rects></_>
    <_>
      <rects>
        <_>
          0 0 24 6 -1.</_>
        <_>
          8 0 8 6 3.</_></rects></_>
    <_>
      <rects>
        <_>
          4 7 16 12 -1.</_>
        <_>
          4 11 16 4 3.</_></rects></_>
    <_>
      <rects>
        <_>
          11 6 6 6 -1.</_>
        <_>
          11 6 3 6 2.</_></rects></_>
    <_>
      <rects>
        <_>
          0 20 24 3 -1.</_>
        <_>
          8 20 8 3 3.</_></rects></_>
    <_>
      <rects>
        <_>
          11 6 4 9 -1.</_>
        <_>
          11 6 2 9 2.</_></rects></_>
    <_>
      <rects>
        <_>
          4 13 15 4 -1.</_>
        <_>
          9 13 5 4 3.</_></rects></_>
    <_>
      <rects>
        <_>
          11 6 4 9 -1.</_>
        <_>
          11 6 2 9 2.</_></rects></_>
    <_>
      <rects>
        <_>
          9 6 4 9 -1.</_>
        <_>
          11 6 2 9 2.</_></rects></_>
    <_>
      <rects>
        <_>
          9 12 6 12 -1.</_>
        <_>
          9 18 6 6 2.</_></rects></_>
    <_>
      <rects>
        <_>
          1 22 18 2 -1.</_>
        <_>
          1 23 18 1 2.</_></rects></_>
    <_>
      <rects>
        <_>
          10 7 4 10 -1.</_>
        <_>
          10 12 4 5 2.</_></rects></_>
    <_>
      <rects>
        <_>
          6 7 8 10 -1.</_>
        <_>
          6 12 8 5 2.</_></rects></_>
    <_>
      <rects>
        <_>
          7 6 10 6 -1.</_>
        <_>
          7 8 10 2 3.</_></rects></_>
    <_>
      <rects>
        <_>
          0 14 10 4 -1.</_>
        <_>
          0 16 10 2 2.</_></rects></_>
    <_>
      <rects>
        <_>
          6 18 18 2 -1.</_>
        <_>
          6 19 18 1 2.</_></rects></_>
    <_>
      <rects>
        <_>
          1 1 22 3 -1.</_>
        <_>
          1 2 22 1 3.</_></rects></_>
    <_>
      <rects>
        <_>
          6 16 18 3 -1.</_>
        <_>
          6 17 18 1 3.</_></rects></_>
    <_>
      <rects>
        <_>
          2 4 6 15 -1.</_>
        <_>
          5 4 3 15 2.</_></rects></_>
    <_>
      <rects>
        <_>
          20 4 4 10 -1.</_>
        <_>
          20 4 2 10 2.</_></rects></_>
    <_>
      <rects>
        <_>
          0 4 4 10 -1.</_>
        <_>
          2 4 2 10 2.</_></rects></_>
    <_>
      <rects>
        <_>
          2 16 20 6 -1.</_>
        <_>
          12 16 10 3 2.</_>
        <_>
          2 19 10 3 2.</_></rects></_>
    <_>
      <rects>
        <_>
          0 12 8 9 -1.</_>
        <_>
          4 12 4 9 2.</_></rects></_>
    <_>
      <rects>
        <_>
          12 0 6 9 -1.</_>
        <_>
          14 0 2 9 3.</_></rects></_>
    <_>
      <rects>
        <_>
          5 10 6 6 -1.</_>
        <_>
          8 10 3 6 2.</_></rects></_>
    <_>
      <rects>
        <_>
          11 8 12 6 -1.</_>
        <_>
          17 8 6 3 2.</_>
        <_>
          11 11 6 3 2.</_></rects></_>
    <_>
      <rects>
        <_>
          0 8 12 6 -1.</_>
        <_>
          0 8 6 3 2.</_>
        <_>
          6 11 6 3 2.</_></rects></_>
    <_>
      <rects>
        <_>
          12 0 6 9 -1.</_>
        <_>
          14 0 2 9 3.</_></rects></_>
    <_>
      <rects>
        <_>
          6 0 6 9 -1.</_>
        <_>
          8 0 2 9 3.</_></rects></_>
    <_>
      <rects>
        <_>
          8 14 9 6 -1.</_>
        <_>
          8 16 9 2 3.</_></rects></_>
    <_>
      <rects>
        <_>
          0 16 9 6 -1.</_>
        <_>
          0 18 9 2 3.</_></rects></_>
    <_>
      <rects>
        <_>
          10 8 6 10 -1.</_>
        <_>
          12 8 2 10 3.</_></rects></_>
    <_>
      <rects>
        <_>
          3 19 12 3 -1.</_>
        <_>
          9 19 6 3 2.</_></rects></_>
    <_>
      <rects>
        <_>
          2 10 20 2 -1.</_>
        <_>
          2 11 20 1 2.</_></rects></_>
    <_>
      <rects>
        <_>
          2 9 18 12 -1.</_>
        <_>
          2 9 9 6 2.</_>
        <_>
          11 15 9 6 2.</_></rects></_>
    <_>
      <rects>
        <_>
          3 0 18 24 -1.</_>
        <_>
          3 0 9 24 2.</_></rects></_>
    <_>
      <rects>
        <_>
          5 6 14 10 -1.</_>
        <_>
          5 6 7 5 2.</_>
        <_>
          12 11 7 5 2.</_></rects></_>
    <_>
      <rects>
        <_>
          9 5 10 12 -1.</_>
        <_>
          14 5 5 6 2.</_>
        <_>
          9 11 5 6 2.</_></rects></_>
    <_>
      <rects>
        <_>
          4 5 12 12 -1.</_>
        <_>
          4 5 6 6 2.</_>
        <_>
          10 11 6 6 2.</_></rects></_>
    <_>
      <rects>
        <_>
          4 14 18 3 -1.</_>
        <_>
          4 15 18 1 3.</_></rects></_>
    <_>
      <rects>
        <_>
          6 13 8 8 -1.</_>
        <_>
          6 17 8 4 2.</_></rects></_>
    <_>
      <rects>
        <_>
          3 16 18 6 -1.</_>
        <_>
          3 19 18 3 2.</_></rects></_>
    <_>
      <rects>
        <_>
          0 0 6 6 -1.</_>
        <_>
          3 0 3 6 2.</_></rects></_>
    <_>
      <rects>
        <_>
          6 6 12 18 -1.</_>
        <_>
          10 6 4 18 3.</_></rects></_>
    <_>
      <rects>
        <_>
          6 1 4 14 -1.</_>
        <_>
          8 1 2 14 2.</_></rects></_>
    <_>
      <rects>
        <_>
          3 2 19 2 -1.</_>
        <_>
          3 3 19 1 2.</_></rects></_>
    <_>
      <rects>
        <_>
          1 8 22 13 -1.</_>
        <_>
          12 8 11 13 2.</_></rects></_>
    <_>
      <rects>
        <_>
          8 9 11 4 -1.</_>
        <_>
          8 11 11 2 2.</_></rects></_>
    <_>
      <rects>
        <_>
          0 12 15 10 -1.</_>
        <_>
          5 12 5 10 3.</_></rects></_>
    <_>
      <rects>
        <_>
          12 16 12 6 -1.</_>
        <_>
          16 16 4 6 3.</_></rects></_>
    <_>
      <rects>
        <_>
          0 16 12 6 -1.</_>
        <_>
          4 16 4 6 3.</_></rects></_>
    <_>
      <rects>
        <_>
          19 1 5 12 -1.</_>
        <_>
          19 5 5 4 3.</_></rects></_>
    <_>
      <rects>
        <_>
          0 2 24 4 -1.</_>
        <_>
          8 2 8 4 3.</_></rects></_>
    <_>
      <rects>
        <_>
          6 8 12 4 -1.</_>
        <_>
          6 10 12 2 2.</_></rects></_>
    <_>
      <rects>
        <_>
          7 5 9 6 -1.</_>
        <_>
          10 5 3 6 3.</_></rects></_>
    <_>
      <rects>
        <_>
          9 17 6 6 -1.</_>
        <_>
          9 20 6 3 2.</_></rects></_>
    <_>
      <rects>
        <_>
          0 7 22 15 -1.</_>
        <_>
          0 12 22 5 3.</_></rects></_>
    <_>
      <rects>
        <_>
          4 1 17 9 -1.</_>
        <_>
          4 4 17 3 3.</_></rects></_>
    <_>
      <rects>
        <_>
          7 5 6 10 -1.</_>
        <_>
          9 5 2 10 3.</_></rects></_>
    <_>
      <rects>
        <_>
          18 1 6 8 -1.</_>
        <_>
          18 1 3 8 2.</_></rects></_>
    <_>
      <rects>
        <_>
          0 1 6 7 -1.</_>
        <_>
          3 1 3 7 2.</_></rects></_>
    <_>
      <rects>
        <_>
          18 0 6 22 -1.</_>
        <_>
          18 0 3 22 2.</_></rects></_>
    <_>
      <rects>
        <_>
          0 0 6 22 -1.</_>
        <_>
          3 0 3 22 2.</_></rects></_>
    <_>
      <rects>
        <_>
          16 7 8 16 -1.</_>
        <_>
          16 7 4 16 2.</_></rects></_>
    <_>
      <rects>
        <_>
          2 10 19 6 -1.</_>
        <_>
          2 12 19 2 3.</_></rects></_>
    <_>
      <rects>
        <_>
          9 9 6 12 -1.</_>
        <_>
          9 13 6 4 3.</_></rects></_>
    <_>
      <rects>
        <_>
          2 15 17 6 -1.</_>
        <_>
          2 17 17 2 3.</_></rects></_>
    <_>
      <rects>
        <_>
          14 7 3 14 -1.</_>
        <_>
          14 14 3 7 2.</_></rects></_>
    <_>
      <rects>
        <_>
          5 6 8 10 -1.</_>
        <_>
          5 6 4 5 2.</_>
        <_>
          9 11 4 5 2.</_></rects></_>
    <_>
      <rects>
        <_>
          15 8 9 11 -1.</_>
        <_>
          18 8 3 11 3.</_></rects></_>
    <_>
      <rects>
        <_>
          0 8 9 11 -1.</_>
        <_>
          3 8 3 11 3.</_></rects></_>
    <_>
      <rects>
        <_>
          8 6 10 18 -1.</_>
        <_>
          8 15 10 9 2.</_></rects></_>
    <_>
      <rects>
        <_>
          7 7 3 14 -1.</_>
        <_>
          7 14 3 7 2.</_></rects></_>
    <_>
      <rects>
        <_>
          0 14 24 8 -1.</_>
        <_>
          8 14 8 8 3.</_></rects></_>
    <_>
      <rects>
        <_>
          1 10 18 14 -1.</_>
        <_>
          10 10 9 14 2.</_></rects></_>
    <_>
      <rects>
        <_>
          14 12 6 6 -1.</_>
        <_>
          14 15 6 3 2.</_></rects></_>
    <_>
      <rects>
        <_>
          7 0 10 16 -1.</_>
        <_>
          7 0 5 8 2.</_>
        <_>
          12 8 5 8 2.</_></rects></_>
    <_>
      <rects>
        <_>
          10 0 9 6 -1.</_>
        <_>
          13 0 3 6 3.</_></rects></_>
    <_>
      <rects>
        <_>
          4 3 16 4 -1.</_>
        <_>
          12 3 8 4 2.</_></rects></_>
    <_>
      <rects>
        <_>
          10 0 9 6 -1.</_>
        <_>
          13 0 3 6 3.</_></rects></_>
    <_>
      <rects>
        <_>
          1 1 20 4 -1.</_>
        <_>
          1 1 10 2 2.</_>
        <_>
          11 3 10 2 2.</_></rects></_>
    <_>
      <rects>
        <_>
          10 0 9 6 -1.</_>
        <_>
          13 0 3 6 3.</_></rects></_>
    <_>
      <rects>
        <_>
          5 0 9 6 -1.</_>
        <_>
          8 0 3 6 3.</_></rects></_>
    <_>
      <rects>
        <_>
          8 18 10 6 -1.</_>
        <_>
          8 20 10 2 3.</_></rects></_>
    <_>
      <rects>
        <_>
          6 3 6 9 -1.</_>
        <_>
          8 3 2 9 3.</_></rects></_>
    <_>
      <rects>
        <_>
          7 3 12 6 -1.</_>
        <_>
          7 5 12 2 3.</_></rects></_>
    <_>
      <rects>
        <_>
          0 10 18 3 -1.</_>
        <_>
          0 11 18 1 3.</_></rects></_>
    <_>
      <rects>
        <_>
          1 10 22 3 -1.</_>
        <_>
          1 11 22 1 3.</_></rects></_>
    <_>
      <rects>
        <_>
          5 11 8 8 -1.</_>
        <_>
          9 11 4 8 2.</_></rects></_>
    <_>
      <rects>
        <_>
          12 11 6 6 -1.</_>
        <_>
          12 11 3 6 2.</_></rects></_>
    <_>
      <rects>
        <_>
          6 11 6 6 -1.</_>
        <_>
          9 11 3 6 2.</_></rects></_>
    <_>
      <rects>
        <_>
          7 10 11 6 -1.</_>
        <_>
          7 12 11 2 3.</_></rects></_>
    <_>
      <rects>
        <_>
          0 13 24 4 -1.</_>
        <_>
          0 13 12 2 2.</_>
        <_>
          12 15 12 2 2.</_></rects></_>
    <_>
      <rects>
        <_>
          2 4 22 12 -1.</_>
        <_>
          13 4 11 6 2.</_>
        <_>
          2 10 11 6 2.</_></rects></_>
    <_>
      <rects>
        <_>
          2 0 20 17 -1.</_>
        <_>
          12 0 10 17 2.</_></rects></_>
    <_>
      <rects>
        <_>
          14 0 2 24 -1.</_>
        <_>
          14 0 1 24 2.</_></rects></_>
    <_>
      <rects>
        <_>
          8 0 2 24 -1.</_>
        <_>
          9 0 1 24 2.</_></rects></_>
    <_>
      <rects>
        <_>
          14 1 2 22 -1.</_>
        <_>
          14 1 1 22 2.</_></rects></_>
    <_>
      <rects>
        <_>
          8 1 2 22 -1.</_>
        <_>
          9 1 1 22 2.</_></rects></_>
    <_>
      <rects>
        <_>
          17 6 3 18 -1.</_>
        <_>
          18 6 1 18 3.</_></rects></_>
    <_>
      <rects>
        <_>
          6 14 9 6 -1.</_>
        <_>
          6 16 9 2 3.</_></rects></_>
    <_>
      <rects>
        <_>
          13 14 9 4 -1.</_>
        <_>
          13 16 9 2 2.</_></rects></_>
    <_>
      <rects>
        <_>
          3 18 18 3 -1.</_>
        <_>
          3 19 18 1 3.</_></rects></_>
    <_>
      <rects>
        <_>
          9 4 8 18 -1.</_>
        <_>
          13 4 4 9 2.</_>
        <_>
          9 13 4 9 2.</_></rects></_>
    <_>
      <rects>
        <_>
          0 17 18 3 -1.</_>
        <_>
          0 18 18 1 3.</_></rects></_>
    <_>
      <rects>
        <_>
          0 2 12 4 -1.</_>
        <_>
          6 2 6 4 2.</_></rects></_>
    <_>
      <rects>
        <_>
          6 8 14 6 -1.</_>
        <_>
          6 11 14 3 2.</_></rects></_>
    <_>
      <rects>
        <_>
          7 5 6 6 -1.</_>
        <_>
          10 5 3 6 2.</_></rects></_>
    <_>
      <rects>
        <_>
          10 5 6 16 -1.</_>
        <_>
          10 13 6 8 2.</_></rects></_>
    <_>
      <rects>
        <_>
          1 4 9 16 -1.</_>
        <_>
          4 4 3 16 3.</_></rects></_>
    <_>
      <rects>
        <_>
          5 0 18 9 -1.</_>
        <_>
          5 3 18 3 3.</_></rects></_>
    <_>
      <rects>
        <_>
          9 15 5 8 -1.</_>
        <_>
          9 19 5 4 2.</_></rects></_>
    <_>
      <rects>
        <_>
          20 0 4 9 -1.</_>
        <_>
          20 0 2 9 2.</_></rects></_>
    <_>
      <rects>
        <_>
          2 0 18 3 -1.</_>
        <_>
          2 1 18 1 3.</_></rects></_>
    <_>
      <rects>
        <_>
          5 22 19 2 -1.</_>
        <_>
          5 23 19 1 2.</_></rects></_>
    <_>
      <rects>
        <_>
          0 0 4 9 -1.</_>
        <_>
          2 0 2 9 2.</_></rects></_>
    <_>
      <rects>
        <_>
          5 6 19 18 -1.</_>
        <_>
          5 12 19 6 3.</_></rects></_>
    <_>
      <rects>
        <_>
          0 1 6 9 -1.</_>
        <_>
          2 1 2 9 3.</_></rects></_>
    <_>
      <rects>
        <_>
          6 5 14 12 -1.</_>
        <_>
          13 5 7 6 2.</_>
        <_>
          6 11 7 6 2.</_></rects></_>
    <_>
      <rects>
        <_>
          0 1 20 2 -1.</_>
        <_>
          0 2 20 1 2.</_></rects></_>
    <_>
      <rects>
        <_>
          1 2 22 3 -1.</_>
        <_>
          1 3 22 1 3.</_></rects></_>
    <_>
      <rects>
        <_>
          2 8 7 9 -1.</_>
        <_>
          2 11 7 3 3.</_></rects></_>
    <_>
      <rects>
        <_>
          2 12 22 4 -1.</_>
        <_>
          13 12 11 2 2.</_>
        <_>
          2 14 11 2 2.</_></rects></_>
    <_>
      <rects>
        <_>
          0 12 22 4 -1.</_>
        <_>
          0 12 11 2 2.</_>
        <_>
          11 14 11 2 2.</_></rects></_>
    <_>
      <rects>
        <_>
          9 7 6 11 -1.</_>
        <_>
          11 7 2 11 3.</_></rects></_>
    <_>
      <rects>
        <_>
          7 1 9 6 -1.</_>
        <_>
          10 1 3 6 3.</_></rects></_>
    <_>
      <rects>
        <_>
          11 2 4 10 -1.</_>
        <_>
          11 7 4 5 2.</_></rects></_>
    <_>
      <rects>
        <_>
          6 4 12 12 -1.</_>
        <_>
          6 10 12 6 2.</_></rects></_>
    <_>
      <rects>
        <_>
          18 1 6 15 -1.</_>
        <_>
          18 6 6 5 3.</_></rects></_>
    <_>
      <rects>
        <_>
          3 15 18 3 -1.</_>
        <_>
          3 16 18 1 3.</_></rects></_>
    <_>
      <rects>
        <_>
          18 5 6 9 -1.</_>
        <_>
          18 8 6 3 3.</_></rects></_>
    <_>
      <rects>
        <_>
          1 5 16 6 -1.</_>
        <_>
          1 5 8 3 2.</_>
        <_>
          9 8 8 3 2.</_></rects></_>
    <_>
      <rects>
        <_>
          11 0 6 9 -1.</_>
        <_>
          13 0 2 9 3.</_></rects></_>
    <_>
      <rects>
        <_>
          0 4 24 14 -1.</_>
        <_>
          0 4 12 7 2.</_>
        <_>
          12 11 12 7 2.</_></rects></_>
    <_>
      <rects>
        <_>
          13 0 4 13 -1.</_>
        <_>
          13 0 2 13 2.</_></rects></_>
    <_>
      <rects>
        <_>
          7 0 4 13 -1.</_>
        <_>
          9 0 2 13 2.</_></rects></_>
    <_>
      <rects>
        <_>
          11 6 6 9 -1.</_>
        <_>
          13 6 2 9 3.</_></rects></_>
    <_>
      <rects>
        <_>
          8 7 6 9 -1.</_>
        <_>
          10 7 2 9 3.</_></rects></_>
    <_>
      <rects>
        <_>
          13 17 9 6 -1.</_>
        <_>
          13 19 9 2 3.</_></rects></_>
    <_>
      <rects>
        <_>
          2 18 14 6 -1.</_>
        <_>
          2 18 7 3 2.</_>
        <_>
          9 21 7 3 2.</_></rects></_>
    <_>
      <rects>
        <_>
          3 18 18 4 -1.</_>
        <_>
          12 18 9 2 2.</_>
        <_>
          3 20 9 2 2.</_></rects></_>
    <_>
      <rects>
        <_>
          0 20 15 4 -1.</_>
        <_>
          5 20 5 4 3.</_></rects></_>
    <_>
      <rects>
        <_>
          9 15 15 9 -1.</_>
        <_>
          14 15 5 9 3.</_></rects></_>
    <_>
      <rects>
        <_>
          4 4 16 4 -1.</_>
        <_>
          4 6 16 2 2.</_></rects></_>
    <_>
      <rects>
        <_>
          7 6 10 6 -1.</_>
        <_>
          7 8 10 2 3.</_></rects></_>
    <_>
      <rects>
        <_>
          0 14 15 10 -1.</_>
        <_>
          5 14 5 10 3.</_></rects></_>
    <_>
      <rects>
        <_>
          7 9 10 14 -1.</_>
        <_>
          12 9 5 7 2.</_>
        <_>
          7 16 5 7 2.</_></rects></_>
    <_>
      <rects>
        <_>
          7 6 6 9 -1.</_>
        <_>
          9 6 2 9 3.</_></rects></_>
    <_>
      <rects>
        <_>
          3 6 18 3 -1.</_>
        <_>
          3 7 18 1 3.</_></rects></_>
    <_>
      <rects>
        <_>
          0 10 18 3 -1.</_>
        <_>
          0 11 18 1 3.</_></rects></_>
    <_>
      <rects>
        <_>
          3 16 18 4 -1.</_>
        <_>
          12 16 9 2 2.</_>
        <_>
          3 18 9 2 2.</_></rects></_>
    <_>
      <rects>
        <_>
          4 6 14 6 -1.</_>
        <_>
          4 6 7 3 2.</_>
        <_>
          11 9 7 3 2.</_></rects></_>
    <_>
      <rects>
        <_>
          13 0 2 18 -1.</_>
        <_>
          13 0 1 18 2.</_></rects></_>
    <_>
      <rects>
        <_>
          9 0 2 18 -1.</_>
        <_>
          10 0 1 18 2.</_></rects></_>
    <_>
      <rects>
        <_>
          5 7 15 10 -1.</_>
        <_>
          10 7 5 10 3.</_></rects></_>
    <_>
      <rects>
        <_>
          1 20 21 4 -1.</_>
        <_>
          8 20 7 4 3.</_></rects></_>
    <_>
      <rects>
        <_>
          10 5 5 18 -1.</_>
        <_>
          10 14 5 9 2.</_></rects></_>
    <_>
      <rects>
        <_>
          0 2 24 6 -1.</_>
        <_>
          0 2 12 3 2.</_>
        <_>
          12 5 12 3 2.</_></rects></_>
    <_>
      <rects>
        <_>
          1 1 22 8 -1.</_>
        <_>
          12 1 11 4 2.</_>
        <_>
          1 5 11 4 2.</_></rects></_>
    <_>
      <rects>
        <_>
          4 0 15 9 -1.</_>
        <_>
          4 3 15 3 3.</_></rects></_>
    <_>
      <rects>
        <_>
          0 0 24 19 -1.</_>
        <_>
          8 0 8 19 3.</_></rects></_>
    <_>
      <rects>
        <_>
          2 21 18 3 -1.</_>
        <_>
          11 21 9 3 2.</_></rects></_>
    <_>
      <rects>
        <_>
          9 7 10 4 -1.</_>
        <_>
          9 7 5 4 2.</_></rects></_>
    <_>
      <rects>
        <_>
          5 7 10 4 -1.</_>
        <_>
          10 7 5 4 2.</_></rects></_>
    <_>
      <rects>
        <_>
          17 8 6 16 -1.</_>
        <_>
          20 8 3 8 2.</_>
        <_>
          17 16 3 8 2.</_></rects></_>
    <_>
      <rects>
        <_>
          1 15 20 4 -1.</_>
        <_>
          1 15 10 2 2.</_>
        <_>
          11 17 10 2 2.</_></rects></_>
    <_>
      <rects>
        <_>
          14 15 10 6 -1.</_>
        <_>
          14 17 10 2 3.</_></rects></_>
    <_>
      <rects>
        <_>
          3 0 16 9 -1.</_>
        <_>
          3 3 16 3 3.</_></rects></_>
    <_>
      <rects>
        <_>
          15 6 7 15 -1.</_>
        <_>
          15 11 7 5 3.</_></rects></_>
    <_>
      <rects>
        <_>
          9 1 6 13 -1.</_>
        <_>
          11 1 2 13 3.</_></rects></_>
    <_>
      <rects>
        <_>
          17 2 6 14 -1.</_>
        <_>
          17 2 3 14 2.</_></rects></_>
    <_>
      <rects>
        <_>
          3 14 12 10 -1.</_>
        <_>
          3 14 6 5 2.</_>
        <_>
          9 19 6 5 2.</_></rects></_>
    <_>
      <rects>
        <_>
          7 6 10 6 -1.</_>
        <_>
          7 8 10 2 3.</_></rects></_>
    <_>
      <rects>
        <_>
          1 2 6 14 -1.</_>
        <_>
          4 2 3 14 2.</_></rects></_>
    <_>
      <rects>
        <_>
          10 4 5 12 -1.</_>
        <_>
          10 8 5 4 3.</_></rects></_>
    <_>
      <rects>
        <_>
          0 17 24 5 -1.</_>
        <_>
          8 17 8 5 3.</_></rects></_>
    <_>
      <rects>
        <_>
          15 7 5 12 -1.</_>
        <_>
          15 11 5 4 3.</_></rects></_>
    <_>
      <rects>
        <_>
          3 1 6 12 -1.</_>
        <_>
          3 1 3 6 2.</_>
        <_>
          6 7 3 6 2.</_></rects></_>
    <_>
      <rects>
        <_>
          12 13 6 6 -1.</_>
        <_>
          12 16 6 3 2.</_></rects></_>
    <_>
      <rects>
        <_>
          6 13 6 6 -1.</_>
        <_>
          6 16 6 3 2.</_></rects></_>
    <_>
      <rects>
        <_>
          14 6 3 16 -1.</_>
        <_>
          14 14 3 8 2.</_></rects></_>
    <_>
      <rects>
        <_>
          1 12 13 6 -1.</_>
        <_>
          1 14 13 2 3.</_></rects></_>
    <_>
      <rects>
        <_>
          13 1 4 9 -1.</_>
        <_>
          13 1 2 9 2.</_></rects></_>
    <_>
      <rects>
        <_>
          7 0 9 6 -1.</_>
        <_>
          10 0 3 6 3.</_></rects></_>
    <_>
      <rects>
        <_>
          12 2 6 9 -1.</_>
        <_>
          12 2 3 9 2.</_></rects></_>
    <_>
      <rects>
        <_>
          6 2 6 9 -1.</_>
        <_>
          9 2 3 9 2.</_></rects></_>
    <_>
      <rects>
        <_>
          6 18 12 6 -1.</_>
        <_>
          6 20 12 2 3.</_></rects></_>
    <_>
      <rects>
        <_>
          7 6 6 9 -1.</_>
        <_>
          9 6 2 9 3.</_></rects></_>
    <_>
      <rects>
        <_>
          7 7 12 3 -1.</_>
        <_>
          7 7 6 3 2.</_></rects></_>
    <_>
      <rects>
        <_>
          8 3 8 21 -1.</_>
        <_>
          8 10 8 7 3.</_></rects></_>
    <_>
      <rects>
        <_>
          7 4 10 12 -1.</_>
        <_>
          7 8 10 4 3.</_></rects></_>
    <_>
      <rects>
        <_>
          0 1 6 9 -1.</_>
        <_>
          0 4 6 3 3.</_></rects></_>
    <_>
      <rects>
        <_>
          15 2 2 20 -1.</_>
        <_>
          15 2 1 20 2.</_></rects></_>
    <_>
      <rects>
        <_>
          0 3 6 9 -1.</_>
        <_>
          0 6 6 3 3.</_></rects></_>
    <_>
      <rects>
        <_>
          15 3 2 21 -1.</_>
        <_>
          15 3 1 21 2.</_></rects></_>
    <_>
      <rects>
        <_>
          7 0 2 23 -1.</_>
        <_>
          8 0 1 23 2.</_></rects></_>
    <_>
      <rects>
        <_>
          15 8 9 4 -1.</_>
        <_>
          15 10 9 2 2.</_></rects></_>
    <_>
      <rects>
        <_>
          0 8 9 4 -1.</_>
        <_>
          0 10 9 2 2.</_></rects></_>
    <_>
      <rects>
        <_>
          8 14 9 6 -1.</_>
        <_>
          8 16 9 2 3.</_></rects></_>
    <_>
      <rects>
        <_>
          0 14 9 6 -1.</_>
        <_>
          0 16 9 2 3.</_></rects></_>
    <_>
      <rects>
        <_>
          3 10 18 4 -1.</_>
        <_>
          9 10 6 4 3.</_></rects></_>
    <_>
      <rects>
        <_>
          0 0 24 19 -1.</_>
        <_>
          8 0 8 19 3.</_></rects></_>
    <_>
      <rects>
        <_>
          9 1 8 12 -1.</_>
        <_>
          9 7 8 6 2.</_></rects></_>
    <_>
      <rects>
        <_>
          10 6 4 10 -1.</_>
        <_>
          12 6 2 10 2.</_></rects></_>
    <_>
      <rects>
        <_>
          7 9 10 12 -1.</_>
        <_>
          12 9 5 6 2.</_>
        <_>
          7 15 5 6 2.</_></rects></_>
    <_>
      <rects>
        <_>
          5 0 3 19 -1.</_>
        <_>
          6 0 1 19 3.</_></rects></_>
    <_>
      <rects>
        <_>
          14 0 6 10 -1.</_>
        <_>
          16 0 2 10 3.</_></rects></_>
    <_>
      <rects>
        <_>
          2 0 6 12 -1.</_>
        <_>
          2 0 3 6 2.</_>
        <_>
          5 6 3 6 2.</_></rects></_>
    <_>
      <rects>
        <_>
          0 11 24 2 -1.</_>
        <_>
          0 12 24 1 2.</_></rects></_>
    <_>
      <rects>
        <_>
          4 9 13 4 -1.</_>
        <_>
          4 11 13 2 2.</_></rects></_>
    <_>
      <rects>
        <_>
          9 8 6 9 -1.</_>
        <_>
          9 11 6 3 3.</_></rects></_>
    <_>
      <rects>
        <_>
          0 12 16 4 -1.</_>
        <_>
          0 14 16 2 2.</_></rects></_>
    <_>
      <rects>
        <_>
          18 12 6 9 -1.</_>
        <_>
          18 15 6 3 3.</_></rects></_>
    <_>
      <rects>
        <_>
          0 12 6 9 -1.</_>
        <_>
          0 15 6 3 3.</_></rects></_>
    <_>
      <rects>
        <_>
          8 7 10 4 -1.</_>
        <_>
          8 7 5 4 2.</_></rects></_>
    <_>
      <rects>
        <_>
          8 7 6 9 -1.</_>
        <_>
          10 7 2 9 3.</_></rects></_>
    <_>
      <rects>
        <_>
          11 0 6 9 -1.</_>
        <_>
          13 0 2 9 3.</_></rects></_>
    <_>
      <rects>
        <_>
          7 0 6 9 -1.</_>
        <_>
          9 0 2 9 3.</_></rects></_>
    <_>
      <rects>
        <_>
          12 3 6 15 -1.</_>
        <_>
          14 3 2 15 3.</_></rects></_>
    <_>
      <rects>
        <_>
          6 3 6 15 -1.</_>
        <_>
          8 3 2 15 3.</_></rects></_>
    <_>
      <rects>
        <_>
          15 2 9 4 -1.</_>
        <_>
          15 4 9 2 2.</_></rects></_>
    <_>
      <rects>
        <_>
          5 10 6 7 -1.</_>
        <_>
          8 10 3 7 2.</_></rects></_>
    <_>
      <rects>
        <_>
          9 14 6 10 -1.</_>
        <_>
          9 19 6 5 2.</_></rects></_>
    <_>
      <rects>
        <_>
          7 13 5 8 -1.</_>
        <_>
          7 17 5 4 2.</_></rects></_>
    <_>
      <rects>
        <_>
          14 5 3 16 -1.</_>
        <_>
          14 13 3 8 2.</_></rects></_>
    <_>
      <rects>
        <_>
          2 17 18 3 -1.</_>
        <_>
          2 18 18 1 3.</_></rects></_>
    <_>
      <rects>
        <_>
          5 18 19 3 -1.</_>
        <_>
          5 19 19 1 3.</_></rects></_>
    <_>
      <rects>
        <_>
          9 0 6 9 -1.</_>
        <_>
          11 0 2 9 3.</_></rects></_>
    <_>
      <rects>
        <_>
          12 4 3 18 -1.</_>
        <_>
          13 4 1 18 3.</_></rects></_>
    <_>
      <rects>
        <_>
          9 4 3 18 -1.</_>
        <_>
          10 4 1 18 3.</_></rects></_>
    <_>
      <rects>
        <_>
          3 3 18 9 -1.</_>
        <_>
          9 3 6 9 3.</_></rects></_>
    <_>
      <rects>
        <_>
          6 1 6 14 -1.</_>
        <_>
          8 1 2 14 3.</_></rects></_>
    <_>
      <rects>
        <_>
          12 16 9 6 -1.</_>
        <_>
          12 19 9 3 2.</_></rects></_>
    <_>
      <rects>
        <_>
          1 3 20 16 -1.</_>
        <_>
          1 3 10 8 2.</_>
        <_>
          11 11 10 8 2.</_></rects></_>
    <_>
      <rects>
        <_>
          12 5 6 12 -1.</_>
        <_>
          15 5 3 6 2.</_>
        <_>
          12 11 3 6 2.</_></rects></_>
    <_>
      <rects>
        <_>
          1 2 22 16 -1.</_>
        <_>
          1 2 11 8 2.</_>
        <_>
          12 10 11 8 2.</_></rects></_>
    <_>
      <rects>
        <_>
          10 14 5 10 -1.</_>
        <_>
          10 19 5 5 2.</_></rects></_>
    <_>
      <rects>
        <_>
          3 21 18 3 -1.</_>
        <_>
          3 22 18 1 3.</_></rects></_>
    <_>
      <rects>
        <_>
          10 14 6 10 -1.</_>
        <_>
          12 14 2 10 3.</_></rects></_>
    <_>
      <rects>
        <_>
          0 2 24 4 -1.</_>
        <_>
          8 2 8 4 3.</_></rects></_>
    <_>
      <rects>
        <_>
          6 4 12 9 -1.</_>
        <_>
          6 7 12 3 3.</_></rects></_>
    <_>
      <rects>
        <_>
          6 6 12 5 -1.</_>
        <_>
          10 6 4 5 3.</_></rects></_>
    <_>
      <rects>
        <_>
          5 8 14 12 -1.</_>
        <_>
          5 12 14 4 3.</_></rects></_>
    <_>
      <rects>
        <_>
          4 14 8 10 -1.</_>
        <_>
          4 14 4 5 2.</_>
        <_>
          8 19 4 5 2.</_></rects></_>
    <_>
      <rects>
        <_>
          11 6 5 14 -1.</_>
        <_>
          11 13 5 7 2.</_></rects></_>
    <_>
      <rects>
        <_>
          7 6 3 16 -1.</_>
        <_>
          7 14 3 8 2.</_></rects></_>
    <_>
      <rects>
        <_>
          3 7 18 8 -1.</_>
        <_>
          9 7 6 8 3.</_></rects></_>
    <_>
      <rects>
        <_>
          2 3 20 2 -1.</_>
        <_>
          2 4 20 1 2.</_></rects></_>
    <_>
      <rects>
        <_>
          3 12 19 6 -1.</_>
        <_>
          3 14 19 2 3.</_></rects></_>
    <_>
      <rects>
        <_>
          8 6 6 9 -1.</_>
        <_>
          10 6 2 9 3.</_></rects></_>
    <_>
      <rects>
        <_>
          16 6 6 14 -1.</_>
        <_>
          16 6 3 14 2.</_></rects></_>
    <_>
      <rects>
        <_>
          7 9 6 12 -1.</_>
        <_>
          9 9 2 12 3.</_></rects></_>
    <_>
      <rects>
        <_>
          18 6 6 18 -1.</_>
        <_>
          21 6 3 9 2.</_>
        <_>
          18 15 3 9 2.</_></rects></_>
    <_>
      <rects>
        <_>
          0 6 6 18 -1.</_>
        <_>
          0 6 3 9 2.</_>
        <_>
          3 15 3 9 2.</_></rects></_>
    <_>
      <rects>
        <_>
          18 2 6 9 -1.</_>
        <_>
          18 5 6 3 3.</_></rects></_>
    <_>
      <rects>
        <_>
          3 18 15 6 -1.</_>
        <_>
          3 20 15 2 3.</_></rects></_>
    <_>
      <rects>
        <_>
          18 2 6 9 -1.</_>
        <_>
          18 5 6 3 3.</_></rects></_>
    <_>
      <rects>
        <_>
          0 2 6 9 -1.</_>
        <_>
          0 5 6 3 3.</_></rects></_>
    <_>
      <rects>
        <_>
          5 10 18 2 -1.</_>
        <_>
          5 11 18 1 2.</_></rects></_>
    <_>
      <rects>
        <_>
          6 0 12 6 -1.</_>
        <_>
          6 2 12 2 3.</_></rects></_>
    <_>
      <rects>
        <_>
          10 0 6 9 -1.</_>
        <_>
          12 0 2 9 3.</_></rects></_>
    <_>
      <rects>
        <_>
          8 0 6 9 -1.</_>
        <_>
          10 0 2 9 3.</_></rects></_>
    <_>
      <rects>
        <_>
          15 12 9 6 -1.</_>
        <_>
          15 14 9 2 3.</_></rects></_>
    <_>
      <rects>
        <_>
          3 6 13 6 -1.</_>
        <_>
          3 8 13 2 3.</_></rects></_>
    <_>
      <rects>
        <_>
          15 12 9 6 -1.</_>
        <_>
          15 14 9 2 3.</_></rects></_>
    <_>
      <rects>
        <_>
          2 5 6 15 -1.</_>
        <_>
          5 5 3 15 2.</_></rects></_>
    <_>
      <rects>
        <_>
          8 8 9 6 -1.</_>
        <_>
          11 8 3 6 3.</_></rects></_>
    <_>
      <rects>
        <_>
          8 6 3 14 -1.</_>
        <_>
          8 13 3 7 2.</_></rects></_>
    <_>
      <rects>
        <_>
          15 12 9 6 -1.</_>
        <_>
          15 14 9 2 3.</_></rects></_>
    <_>
      <rects>
        <_>
          4 12 10 4 -1.</_>
        <_>
          9 12 5 4 2.</_></rects></_>
    <_>
      <rects>
        <_>
          13 1 4 19 -1.</_>
        <_>
          13 1 2 19 2.</_></rects></_>
    <_>
      <rects>
        <_>
          7 1 4 19 -1.</_>
        <_>
          9 1 2 19 2.</_></rects></_>
    <_>
      <rects>
        <_>
          18 9 6 9 -1.</_>
        <_>
          18 12 6 3 3.</_></rects></_>
    <_>
      <rects>
        <_>
          1 21 18 3 -1.</_>
        <_>
          1 22 18 1 3.</_></rects></_>
    <_>
      <rects>
        <_>
          14 13 10 9 -1.</_>
        <_>
          14 16 10 3 3.</_></rects></_>
    <_>
      <rects>
        <_>
          1 13 22 4 -1.</_>
        <_>
          1 13 11 2 2.</_>
        <_>
          12 15 11 2 2.</_></rects></_>
    <_>
      <rects>
        <_>
          4 6 16 6 -1.</_>
        <_>
          12 6 8 3 2.</_>
        <_>
          4 9 8 3 2.</_></rects></_>
    <_>
      <rects>
        <_>
          1 0 18 22 -1.</_>
        <_>
          1 0 9 11 2.</_>
        <_>
          10 11 9 11 2.</_></rects></_>
    <_>
      <rects>
        <_>
          10 7 8 14 -1.</_>
        <_>
          14 7 4 7 2.</_>
        <_>
          10 14 4 7 2.</_></rects></_>
    <_>
      <rects>
        <_>
          0 4 6 20 -1.</_>
        <_>
          0 4 3 10 2.</_>
        <_>
          3 14 3 10 2.</_></rects></_>
    <_>
      <rects>
        <_>
          15 0 6 9 -1.</_>
        <_>
          17 0 2 9 3.</_></rects></_>
    <_>
      <rects>
        <_>
          3 0 6 9 -1.</_>
        <_>
          5 0 2 9 3.</_></rects></_>
    <_>
      <rects>
        <_>
          15 12 6 12 -1.</_>
        <_>
          18 12 3 6 2.</_>
        <_>
          15 18 3 6 2.</_></rects></_>
    <_>
      <rects>
        <_>
          3 12 6 12 -1.</_>
        <_>
          3 12 3 6 2.</_>
        <_>
          6 18 3 6 2.</_></rects></_>
    <_>
      <rects>
        <_>
          15 12 9 6 -1.</_>
        <_>
          15 14 9 2 3.</_></rects></_>
    <_>
      <rects>
        <_>
          0 12 9 6 -1.</_>
        <_>
          0 14 9 2 3.</_></rects></_>
    <_>
      <rects>
        <_>
          4 14 19 3 -1.</_>
        <_>
          4 15 19 1 3.</_></rects></_>
    <_>
      <rects>
        <_>
          2 13 19 3 -1.</_>
        <_>
          2 14 19 1 3.</_></rects></_>
    <_>
      <rects>
        <_>
          14 15 10 6 -1.</_>
        <_>
          14 17 10 2 3.</_></rects></_>
    <_>
      <rects>
        <_>
          6 0 10 12 -1.</_>
        <_>
          6 0 5 6 2.</_>
        <_>
          11 6 5 6 2.</_></rects></_>
    <_>
      <rects>
        <_>
          17 1 6 12 -1.</_>
        <_>
          20 1 3 6 2.</_>
        <_>
          17 7 3 6 2.</_></rects></_>
    <_>
      <rects>
        <_>
          1 1 6 12 -1.</_>
        <_>
          1 1 3 6 2.</_>
        <_>
          4 7 3 6 2.</_></rects></_>
    <_>
      <rects>
        <_>
          16 14 6 9 -1.</_>
        <_>
          16 17 6 3 3.</_></rects></_>
    <_>
      <rects>
        <_>
          7 3 9 12 -1.</_>
        <_>
          7 9 9 6 2.</_></rects></_>
    <_>
      <rects>
        <_>
          12 1 4 12 -1.</_>
        <_>
          12 7 4 6 2.</_></rects></_>
    <_>
      <rects>
        <_>
          4 0 14 8 -1.</_>
        <_>
          4 4 14 4 2.</_></rects></_>
    <_>
      <rects>
        <_>
          10 6 6 9 -1.</_>
        <_>
          12 6 2 9 3.</_></rects></_>
    <_>
      <rects>
        <_>
          2 10 18 3 -1.</_>
        <_>
          8 10 6 3 3.</_></rects></_>
    <_>
      <rects>
        <_>
          15 15 9 6 -1.</_>
        <_>
          15 17 9 2 3.</_></rects></_>
    <_>
      <rects>
        <_>
          0 1 21 23 -1.</_>
        <_>
          7 1 7 23 3.</_></rects></_>
    <_>
      <rects>
        <_>
          6 9 17 4 -1.</_>
        <_>
          6 11 17 2 2.</_></rects></_>
    <_>
      <rects>
        <_>
          1 0 11 18 -1.</_>
        <_>
          1 6 11 6 3.</_></rects></_>
    <_>
      <rects>
        <_>
          6 15 13 6 -1.</_>
        <_>
          6 17 13 2 3.</_></rects></_>
    <_>
      <rects>
        <_>
          0 15 9 6 -1.</_>
        <_>
          0 17 9 2 3.</_></rects></_>
    <_>
      <rects>
        <_>
          8 7 15 4 -1.</_>
        <_>
          13 7 5 4 3.</_></rects></_>
    <_>
      <rects>
        <_>
          9 12 6 9 -1.</_>
        <_>
          9 15 6 3 3.</_></rects></_>
    <_>
      <rects>
        <_>
          6 8 18 3 -1.</_>
        <_>
          12 8 6 3 3.</_></rects></_>
    <_>
      <rects>
        <_>
          0 14 24 4 -1.</_>
        <_>
          8 14 8 4 3.</_></rects></_>
    <_>
      <rects>
        <_>
          16 10 3 12 -1.</_>
        <_>
          16 16 3 6 2.</_></rects></_>
    <_>
      <rects>
        <_>
          0 3 24 3 -1.</_>
        <_>
          0 4 24 1 3.</_></rects></_>
    <_>
      <rects>
        <_>
          14 17 10 6 -1.</_>
        <_>
          14 19 10 2 3.</_></rects></_>
    <_>
      <rects>
        <_>
          1 13 18 3 -1.</_>
        <_>
          7 13 6 3 3.</_></rects></_>
    <_>
      <rects>
        <_>
          5 0 18 9 -1.</_>
        <_>
          5 3 18 3 3.</_></rects></_>
    <_>
      <rects>
        <_>
          4 3 16 9 -1.</_>
        <_>
          4 6 16 3 3.</_></rects></_>
    <_>
      <rects>
        <_>
          16 5 3 12 -1.</_>
        <_>
          16 11 3 6 2.</_></rects></_>
    <_>
      <rects>
        <_>
          0 7 18 4 -1.</_>
        <_>
          6 7 6 4 3.</_></rects></_>
    <_>
      <rects>
        <_>
          10 6 6 9 -1.</_>
        <_>
          12 6 2 9 3.</_></rects></_>
    <_>
      <rects>
        <_>
          9 8 6 10 -1.</_>
        <_>
          11 8 2 10 3.</_></rects></_>
    <_>
      <rects>
        <_>
          9 15 6 9 -1.</_>
        <_>
          11 15 2 9 3.</_></rects></_>
    <_>
      <rects>
        <_>
          3 1 18 21 -1.</_>
        <_>
          12 1 9 21 2.</_></rects></_>
    <_>
      <rects>
        <_>
          6 8 12 7 -1.</_>
        <_>
          6 8 6 7 2.</_></rects></_>
    <_>
      <rects>
        <_>
          8 5 6 9 -1.</_>
        <_>
          10 5 2 9 3.</_></rects></_>
    <_>
      <rects>
        <_>
          0 2 24 4 -1.</_>
        <_>
          8 2 8 4 3.</_></rects></_>
    <_>
      <rects>
        <_>
          14 7 5 12 -1.</_>
        <_>
          14 11 5 4 3.</_></rects></_>
    <_>
      <rects>
        <_>
          5 7 5 12 -1.</_>
        <_>
          5 11 5 4 3.</_></rects></_>
    <_>
      <rects>
        <_>
          9 6 6 9 -1.</_>
        <_>
          11 6 2 9 3.</_></rects></_>
    <_>
      <rects>
        <_>
          0 1 6 17 -1.</_>
        <_>
          3 1 3 17 2.</_></rects></_>
    <_>
      <rects>
        <_>
          3 1 19 9 -1.</_>
        <_>
          3 4 19 3 3.</_></rects></_>
    <_>
      <rects>
        <_>
          3 18 12 6 -1.</_>
        <_>
          3 18 6 3 2.</_>
        <_>
          9 21 6 3 2.</_></rects></_>
    <_>
      <rects>
        <_>
          20 4 4 19 -1.</_>
        <_>
          20 4 2 19 2.</_></rects></_>
    <_>
      <rects>
        <_>
          0 16 10 7 -1.</_>
        <_>
          5 16 5 7 2.</_></rects></_>
    <_>
      <rects>
        <_>
          8 7 10 12 -1.</_>
        <_>
          13 7 5 6 2.</_>
        <_>
          8 13 5 6 2.</_></rects></_>
    <_>
      <rects>
        <_>
          6 7 10 12 -1.</_>
        <_>
          6 7 5 6 2.</_>
        <_>
          11 13 5 6 2.</_></rects></_>
    <_>
      <rects>
        <_>
          9 2 9 6 -1.</_>
        <_>
          12 2 3 6 3.</_></rects></_>
    <_>
      <rects>
        <_>
          1 20 21 4 -1.</_>
        <_>
          8 20 7 4 3.</_></rects></_>
    <_>
      <rects>
        <_>
          9 12 9 6 -1.</_>
        <_>
          9 14 9 2 3.</_></rects></_>
    <_>
      <rects>
        <_>
          7 2 9 6 -1.</_>
        <_>
          10 2 3 6 3.</_></rects></_>
    <_>
      <rects>
        <_>
          13 0 4 14 -1.</_>
        <_>
          13 0 2 14 2.</_></rects></_>
    <_>
      <rects>
        <_>
          7 0 4 14 -1.</_>
        <_>
          9 0 2 14 2.</_></rects></_>
    <_>
      <rects>
        <_>
          14 15 9 6 -1.</_>
        <_>
          14 17 9 2 3.</_></rects></_>
    <_>
      <rects>
        <_>
          2 8 18 5 -1.</_>
        <_>
          8 8 6 5 3.</_></rects></_>
    <_>
      <rects>
        <_>
          18 3 6 11 -1.</_>
        <_>
          20 3 2 11 3.</_></rects></_>
    <_>
      <rects>
        <_>
          6 5 11 14 -1.</_>
        <_>
          6 12 11 7 2.</_></rects></_>
    <_>
      <rects>
        <_>
          18 4 6 9 -1.</_>
        <_>
          18 7 6 3 3.</_></rects></_>
    <_>
      <rects>
        <_>
          7 6 9 6 -1.</_>
        <_>
          7 8 9 2 3.</_></rects></_>
    <_>
      <rects>
        <_>
          18 4 6 9 -1.</_>
        <_>
          18 7 6 3 3.</_></rects></_>
    <_>
      <rects>
        <_>
          0 4 6 9 -1.</_>
        <_>
          0 7 6 3 3.</_></rects></_>
    <_>
      <rects>
        <_>
          9 4 9 4 -1.</_>
        <_>
          9 6 9 2 2.</_></rects></_>
    <_>
      <rects>
        <_>
          0 22 19 2 -1.</_>
        <_>
          0 23 19 1 2.</_></rects></_>
    <_>
      <rects>
        <_>
          17 14 6 9 -1.</_>
        <_>
          17 17 6 3 3.</_></rects></_>
    <_>
      <rects>
        <_>
          1 14 6 9 -1.</_>
        <_>
          1 17 6 3 3.</_></rects></_>
    <_>
      <rects>
        <_>
          14 11 4 9 -1.</_>
        <_>
          14 11 2 9 2.</_></rects></_>
    <_>
      <rects>
        <_>
          6 11 4 9 -1.</_>
        <_>
          8 11 2 9 2.</_></rects></_>
    <_>
      <rects>
        <_>
          3 9 18 7 -1.</_>
        <_>
          9 9 6 7 3.</_></rects></_>
    <_>
      <rects>
        <_>
          9 12 6 10 -1.</_>
        <_>
          9 17 6 5 2.</_></rects></_>
    <_>
      <rects>
        <_>
          12 0 6 9 -1.</_>
        <_>
          14 0 2 9 3.</_></rects></_>
    <_>
      <rects>
        <_>
          6 0 6 9 -1.</_>
        <_>
          8 0 2 9 3.</_></rects></_>
    <_>
      <rects>
        <_>
          6 17 18 3 -1.</_>
        <_>
          6 18 18 1 3.</_></rects></_>
    <_>
      <rects>
        <_>
          1 17 18 3 -1.</_>
        <_>
          1 18 18 1 3.</_></rects></_>
    <_>
      <rects>
        <_>
          10 6 11 12 -1.</_>
        <_>
          10 12 11 6 2.</_></rects></_>
    <_>
      <rects>
        <_>
          5 6 14 6 -1.</_>
        <_>
          5 6 7 3 2.</_>
        <_>
          12 9 7 3 2.</_></rects></_>
    <_>
      <rects>
        <_>
          5 4 15 4 -1.</_>
        <_>
          5 6 15 2 2.</_></rects></_>
    <_>
      <rects>
        <_>
          0 0 22 2 -1.</_>
        <_>
          0 1 22 1 2.</_></rects></_>
    <_>
      <rects>
        <_>
          0 0 24 24 -1.</_>
        <_>
          8 0 8 24 3.</_></rects></_>
    <_>
      <rects>
        <_>
          1 15 18 4 -1.</_>
        <_>
          10 15 9 4 2.</_></rects></_>
    <_>
      <rects>
        <_>
          6 8 12 9 -1.</_>
        <_>
          6 11 12 3 3.</_></rects></_>
    <_>
      <rects>
        <_>
          4 12 7 12 -1.</_>
        <_>
          4 16 7 4 3.</_></rects></_>
    <_>
      <rects>
        <_>
          1 2 22 6 -1.</_>
        <_>
          12 2 11 3 2.</_>
        <_>
          1 5 11 3 2.</_></rects></_>
    <_>
      <rects>
        <_>
          5 20 14 3 -1.</_>
        <_>
          12 20 7 3 2.</_></rects></_>
    <_>
      <rects>
        <_>
          0 0 24 16 -1.</_>
        <_>
          12 0 12 8 2.</_>
        <_>
          0 8 12 8 2.</_></rects></_>
    <_>
      <rects>
        <_>
          3 13 18 4 -1.</_>
        <_>
          3 13 9 2 2.</_>
        <_>
          12 15 9 2 2.</_></rects></_>
    <_>
      <rects>
        <_>
          2 10 22 2 -1.</_>
        <_>
          2 11 22 1 2.</_></rects></_>
    <_>
      <rects>
        <_>
          6 3 11 8 -1.</_>
        <_>
          6 7 11 4 2.</_></rects></_>
    <_>
      <rects>
        <_>
          14 5 6 6 -1.</_>
        <_>
          14 8 6 3 2.</_></rects></_>
    <_>
      <rects>
        <_>
          0 7 24 6 -1.</_>
        <_>
          0 9 24 2 3.</_></rects></_>
    <_>
      <rects>
        <_>
          14 0 10 10 -1.</_>
        <_>
          19 0 5 5 2.</_>
        <_>
          14 5 5 5 2.</_></rects></_>
    <_>
      <rects>
        <_>
          0 0 10 10 -1.</_>
        <_>
          0 0 5 5 2.</_>
        <_>
          5 5 5 5 2.</_></rects></_>
    <_>
      <rects>
        <_>
          0 1 24 4 -1.</_>
        <_>
          12 1 12 2 2.</_>
        <_>
          0 3 12 2 2.</_></rects></_>
    <_>
      <rects>
        <_>
          0 17 18 3 -1.</_>
        <_>
          0 18 18 1 3.</_></rects></_>
    <_>
      <rects>
        <_>
          5 15 16 6 -1.</_>
        <_>
          13 15 8 3 2.</_>
        <_>
          5 18 8 3 2.</_></rects></_>
    <_>
      <rects>
        <_>
          3 15 16 6 -1.</_>
        <_>
          3 15 8 3 2.</_>
        <_>
          11 18 8 3 2.</_></rects></_>
    <_>
      <rects>
        <_>
          6 16 18 3 -1.</_>
        <_>
          6 17 18 1 3.</_></rects></_>
    <_>
      <rects>
        <_>
          0 13 21 10 -1.</_>
        <_>
          0 18 21 5 2.</_></rects></_>
    <_>
      <rects>
        <_>
          13 0 6 24 -1.</_>
        <_>
          15 0 2 24 3.</_></rects></_>
    <_>
      <rects>
        <_>
          7 4 6 11 -1.</_>
        <_>
          9 4 2 11 3.</_></rects></_>
    <_>
      <rects>
        <_>
          9 5 9 6 -1.</_>
        <_>
          12 5 3 6 3.</_></rects></_>
    <_>
      <rects>
        <_>
          1 4 2 20 -1.</_>
        <_>
          1 14 2 10 2.</_></rects></_>
    <_>
      <rects>
        <_>
          13 0 6 24 -1.</_>
        <_>
          15 0 2 24 3.</_></rects></_>
    <_>
      <rects>
        <_>
          5 0 6 24 -1.</_>
        <_>
          7 0 2 24 3.</_></rects></_>
    <_>
      <rects>
        <_>
          16 7 6 14 -1.</_>
        <_>
          19 7 3 7 2.</_>
        <_>
          16 14 3 7 2.</_></rects></_>
    <_>
      <rects>
        <_>
          4 7 4 12 -1.</_>
        <_>
          6 7 2 12 2.</_></rects></_>
    <_>
      <rects>
        <_>
          0 5 24 14 -1.</_>
        <_>
          8 5 8 14 3.</_></rects></_>
    <_>
      <rects>
        <_>
          5 13 10 6 -1.</_>
        <_>
          5 15 10 2 3.</_></rects></_>
    <_>
      <rects>
        <_>
          12 0 6 9 -1.</_>
        <_>
          14 0 2 9 3.</_></rects></_>
    <_>
      <rects>
        <_>
          2 7 6 14 -1.</_>
        <_>
          2 7 3 7 2.</_>
        <_>
          5 14 3 7 2.</_></rects></_>
    <_>
      <rects>
        <_>
          15 2 9 15 -1.</_>
        <_>
          18 2 3 15 3.</_></rects></_>
    <_>
      <rects>
        <_>
          0 2 6 9 -1.</_>
        <_>
          2 2 2 9 3.</_></rects></_>
    <_>
      <rects>
        <_>
          12 2 10 14 -1.</_>
        <_>
          17 2 5 7 2.</_>
        <_>
          12 9 5 7 2.</_></rects></_>
    <_>
      <rects>
        <_>
          11 6 2 18 -1.</_>
        <_>
          12 6 1 18 2.</_></rects></_>
    <_>
      <rects>
        <_>
          9 5 15 6 -1.</_>
        <_>
          14 5 5 6 3.</_></rects></_>
    <_>
      <rects>
        <_>
          8 6 6 10 -1.</_>
        <_>
          10 6 2 10 3.</_></rects></_>
    <_>
      <rects>
        <_>
          12 0 6 9 -1.</_>
        <_>
          14 0 2 9 3.</_></rects></_>
    <_>
      <rects>
        <_>
          3 3 9 7 -1.</_>
        <_>
          6 3 3 7 3.</_></rects></_>
    <_>
      <rects>
        <_>
          6 7 14 3 -1.</_>
        <_>
          6 7 7 3 2.</_></rects></_>
    <_>
      <rects>
        <_>
          7 7 8 6 -1.</_>
        <_>
          11 7 4 6 2.</_></rects></_>
    <_>
      <rects>
        <_>
          12 7 7 12 -1.</_>
        <_>
          12 13 7 6 2.</_></rects></_>
    <_>
      <rects>
        <_>
          10 6 4 18 -1.</_>
        <_>
          10 6 2 9 2.</_>
        <_>
          12 15 2 9 2.</_></rects></_>
    <_>
      <rects>
        <_>
          16 14 6 9 -1.</_>
        <_>
          16 17 6 3 3.</_></rects></_>
    <_>
      <rects>
        <_>
          4 0 6 13 -1.</_>
        <_>
          6 0 2 13 3.</_></rects></_>
    <_>
      <rects>
        <_>
          2 2 21 3 -1.</_>
        <_>
          9 2 7 3 3.</_></rects></_>
    <_>
      <rects>
        <_>
          5 4 5 12 -1.</_>
        <_>
          5 8 5 4 3.</_></rects></_>
    <_>
      <rects>
        <_>
          10 3 4 10 -1.</_>
        <_>
          10 8 4 5 2.</_></rects></_>
    <_>
      <rects>
        <_>
          8 4 5 8 -1.</_>
        <_>
          8 8 5 4 2.</_></rects></_>
    <_>
      <rects>
        <_>
          6 0 11 9 -1.</_>
        <_>
          6 3 11 3 3.</_></rects></_>
    <_>
      <rects>
        <_>
          6 6 12 5 -1.</_>
        <_>
          10 6 4 5 3.</_></rects></_>
    <_>
      <rects>
        <_>
          0 0 24 5 -1.</_>
        <_>
          8 0 8 5 3.</_></rects></_>
    <_>
      <rects>
        <_>
          1 10 23 6 -1.</_>
        <_>
          1 12 23 2 3.</_></rects></_>
    <_>
      <rects>
        <_>
          3 21 18 3 -1.</_>
        <_>
          9 21 6 3 3.</_></rects></_>
    <_>
      <rects>
        <_>
          3 6 21 6 -1.</_>
        <_>
          3 8 21 2 3.</_></rects></_>
    <_>
      <rects>
        <_>
          0 5 6 12 -1.</_>
        <_>
          2 5 2 12 3.</_></rects></_>
    <_>
      <rects>
        <_>
          10 2 4 15 -1.</_>
        <_>
          10 7 4 5 3.</_></rects></_>
    <_>
      <rects>
        <_>
          8 7 8 10 -1.</_>
        <_>
          8 12 8 5 2.</_></rects></_>
    <_>
      <rects>
        <_>
          5 7 15 12 -1.</_>
        <_>
          10 7 5 12 3.</_></rects></_>
    <_>
      <rects>
        <_>
          0 17 10 6 -1.</_>
        <_>
          0 19 10 2 3.</_></rects></_>
    <_>
      <rects>
        <_>
          14 18 9 6 -1.</_>
        <_>
          14 20 9 2 3.</_></rects></_>
    <_>
      <rects>
        <_>
          9 6 6 16 -1.</_>
        <_>
          9 14 6 8 2.</_></rects></_>
    <_>
      <rects>
        <_>
          14 18 9 6 -1.</_>
        <_>
          14 20 9 2 3.</_></rects></_>
    <_>
      <rects>
        <_>
          1 18 9 6 -1.</_>
        <_>
          1 20 9 2 3.</_></rects></_>
    <_>
      <rects>
        <_>
          15 9 9 6 -1.</_>
        <_>
          15 11 9 2 3.</_></rects></_>
    <_>
      <rects>
        <_>
          0 9 9 6 -1.</_>
        <_>
          0 11 9 2 3.</_></rects></_>
    <_>
      <rects>
        <_>
          17 3 6 9 -1.</_>
        <_>
          19 3 2 9 3.</_></rects></_>
    <_>
      <rects>
        <_>
          2 17 18 3 -1.</_>
        <_>
          2 18 18 1 3.</_></rects></_>
    <_>
      <rects>
        <_>
          3 15 21 6 -1.</_>
        <_>
          3 17 21 2 3.</_></rects></_>
    <_>
      <rects>
        <_>
          9 17 6 6 -1.</_>
        <_>
          9 20 6 3 2.</_></rects></_>
    <_>
      <rects>
        <_>
          18 3 6 9 -1.</_>
        <_>
          18 6 6 3 3.</_></rects></_>
    <_>
      <rects>
        <_>
          0 3 6 9 -1.</_>
        <_>
          0 6 6 3 3.</_></rects></_>
    <_>
      <rects>
        <_>
          4 0 16 10 -1.</_>
        <_>
          12 0 8 5 2.</_>
        <_>
          4 5 8 5 2.</_></rects></_>
    <_>
      <rects>
        <_>
          2 0 10 16 -1.</_>
        <_>
          2 0 5 8 2.</_>
        <_>
          7 8 5 8 2.</_></rects></_>
    <_>
      <rects>
        <_>
          14 0 10 5 -1.</_>
        <_>
          14 0 5 5 2.</_></rects></_>
    <_>
      <rects>
        <_>
          0 0 10 5 -1.</_>
        <_>
          5 0 5 5 2.</_></rects></_>
    <_>
      <rects>
        <_>
          18 3 6 10 -1.</_>
        <_>
          18 3 3 10 2.</_></rects></_>
    <_>
      <rects>
        <_>
          5 11 12 6 -1.</_>
        <_>
          5 11 6 3 2.</_>
        <_>
          11 14 6 3 2.</_></rects></_>
    <_>
      <rects>
        <_>
          21 0 3 18 -1.</_>
        <_>
          22 0 1 18 3.</_></rects></_>
    <_>
      <rects>
        <_>
          6 0 6 9 -1.</_>
        <_>
          8 0 2 9 3.</_></rects></_>
    <_>
      <rects>
        <_>
          8 8 9 7 -1.</_>
        <_>
          11 8 3 7 3.</_></rects></_>
    <_>
      <rects>
        <_>
          7 12 8 10 -1.</_>
        <_>
          7 12 4 5 2.</_>
        <_>
          11 17 4 5 2.</_></rects></_>
    <_>
      <rects>
        <_>
          21 0 3 18 -1.</_>
        <_>
          22 0 1 18 3.</_></rects></_>
    <_>
      <rects>
        <_>
          10 6 4 9 -1.</_>
        <_>
          12 6 2 9 2.</_></rects></_>
    <_>
      <rects>
        <_>
          15 0 9 6 -1.</_>
        <_>
          15 2 9 2 3.</_></rects></_>
    <_>
      <rects>
        <_>
          0 2 24 3 -1.</_>
        <_>
          0 3 24 1 3.</_></rects></_>
    <_>
      <rects>
        <_>
          11 7 6 9 -1.</_>
        <_>
          13 7 2 9 3.</_></rects></_>
    <_>
      <rects>
        <_>
          7 6 6 10 -1.</_>
        <_>
          9 6 2 10 3.</_></rects></_>
    <_>
      <rects>
        <_>
          12 1 6 12 -1.</_>
        <_>
          14 1 2 12 3.</_></rects></_>
    <_>
      <rects>
        <_>
          6 4 12 12 -1.</_>
        <_>
          6 10 12 6 2.</_></rects></_>
    <_>
      <rects>
        <_>
          14 3 2 21 -1.</_>
        <_>
          14 3 1 21 2.</_></rects></_>
    <_>
      <rects>
        <_>
          6 1 12 8 -1.</_>
        <_>
          6 5 12 4 2.</_></rects></_>
    <_>
      <rects>
        <_>
          3 0 18 8 -1.</_>
        <_>
          3 4 18 4 2.</_></rects></_>
    <_>
      <rects>
        <_>
          3 0 18 3 -1.</_>
        <_>
          3 1 18 1 3.</_></rects></_>
    <_>
      <rects>
        <_>
          0 13 24 4 -1.</_>
        <_>
          12 13 12 2 2.</_>
        <_>
          0 15 12 2 2.</_></rects></_>
    <_>
      <rects>
        <_>
          10 5 4 9 -1.</_>
        <_>
          12 5 2 9 2.</_></rects></_>
    <_>
      <rects>
        <_>
          11 1 6 9 -1.</_>
        <_>
          13 1 2 9 3.</_></rects></_>
    <_>
      <rects>
        <_>
          6 2 6 22 -1.</_>
        <_>
          8 2 2 22 3.</_></rects></_>
    <_>
      <rects>
        <_>
          16 10 8 14 -1.</_>
        <_>
          20 10 4 7 2.</_>
        <_>
          16 17 4 7 2.</_></rects></_>
    <_>
      <rects>
        <_>
          3 4 16 15 -1.</_>
        <_>
          3 9 16 5 3.</_></rects></_>
    <_>
      <rects>
        <_>
          16 10 8 14 -1.</_>
        <_>
          20 10 4 7 2.</_>
        <_>
          16 17 4 7 2.</_></rects></_>
    <_>
      <rects>
        <_>
          0 10 8 14 -1.</_>
        <_>
          0 10 4 7 2.</_>
        <_>
          4 17 4 7 2.</_></rects></_>
    <_>
      <rects>
        <_>
          10 14 11 6 -1.</_>
        <_>
          10 17 11 3 2.</_></rects></_>
    <_>
      <rects>
        <_>
          0 7 24 9 -1.</_>
        <_>
          8 7 8 9 3.</_></rects></_>
    <_>
      <rects>
        <_>
          13 1 4 16 -1.</_>
        <_>
          13 1 2 16 2.</_></rects></_>
    <_>
      <rects>
        <_>
          7 1 4 16 -1.</_>
        <_>
          9 1 2 16 2.</_></rects></_>
    <_>
      <rects>
        <_>
          5 5 16 8 -1.</_>
        <_>
          13 5 8 4 2.</_>
        <_>
          5 9 8 4 2.</_></rects></_>
    <_>
      <rects>
        <_>
          0 9 6 9 -1.</_>
        <_>
          0 12 6 3 3.</_></rects></_>
    <_>
      <rects>
        <_>
          6 16 18 3 -1.</_>
        <_>
          6 17 18 1 3.</_></rects></_>
    <_>
      <rects>
        <_>
          3 12 6 9 -1.</_>
        <_>
          3 15 6 3 3.</_></rects></_>
    <_>
      <rects>
        <_>
          8 14 9 6 -1.</_>
        <_>
          8 16 9 2 3.</_></rects></_>
    <_>
      <rects>
        <_>
          2 13 8 10 -1.</_>
        <_>
          2 13 4 5 2.</_>
        <_>
          6 18 4 5 2.</_></rects></_>
    <_>
      <rects>
        <_>
          15 5 3 18 -1.</_>
        <_>
          15 11 3 6 3.</_></rects></_>
    <_>
      <rects>
        <_>
          3 5 18 3 -1.</_>
        <_>
          3 6 18 1 3.</_></rects></_>
    <_>
      <rects>
        <_>
          17 5 6 11 -1.</_>
        <_>
          19 5 2 11 3.</_></rects></_>
    <_>
      <rects>
        <_>
          1 5 6 11 -1.</_>
        <_>
          3 5 2 11 3.</_></rects></_>
    <_>
      <rects>
        <_>
          19 1 4 9 -1.</_>
        <_>
          19 1 2 9 2.</_></rects></_>
    <_>
      <rects>
        <_>
          1 1 4 9 -1.</_>
        <_>
          3 1 2 9 2.</_></rects></_>
    <_>
      <rects>
        <_>
          4 15 18 9 -1.</_>
        <_>
          4 15 9 9 2.</_></rects></_>
    <_>
      <rects>
        <_>
          6 9 12 4 -1.</_>
        <_>
          6 11 12 2 2.</_></rects></_>
    <_>
      <rects>
        <_>
          15 2 9 6 -1.</_>
        <_>
          15 4 9 2 3.</_></rects></_>
    <_>
      <rects>
        <_>
          0 2 9 6 -1.</_>
        <_>
          0 4 9 2 3.</_></rects></_>
    <_>
      <rects>
        <_>
          15 0 6 17 -1.</_>
        <_>
          17 0 2 17 3.</_></rects></_>
    <_>
      <rects>
        <_>
          3 0 6 17 -1.</_>
        <_>
          5 0 2 17 3.</_></rects></_>
    <_>
      <rects>
        <_>
          8 17 9 4 -1.</_>
        <_>
          8 19 9 2 2.</_></rects></_>
    <_>
      <rects>
        <_>
          6 5 3 18 -1.</_>
        <_>
          6 11 3 6 3.</_></rects></_>
    <_>
      <rects>
        <_>
          5 2 14 12 -1.</_>
        <_>
          5 8 14 6 2.</_></rects></_>
    <_>
      <rects>
        <_>
          10 2 3 12 -1.</_>
        <_>
          10 8 3 6 2.</_></rects></_>
    <_>
      <rects>
        <_>
          10 7 14 15 -1.</_>
        <_>
          10 12 14 5 3.</_></rects></_>
    <_>
      <rects>
        <_>
          0 7 14 15 -1.</_>
        <_>
          0 12 14 5 3.</_></rects></_>
    <_>
      <rects>
        <_>
          15 0 9 6 -1.</_>
        <_>
          15 2 9 2 3.</_></rects></_>
    <_>
      <rects>
        <_>
          0 0 9 6 -1.</_>
        <_>
          0 2 9 2 3.</_></rects></_>
    <_>
      <rects>
        <_>
          12 6 6 14 -1.</_>
        <_>
          14 6 2 14 3.</_></rects></_>
    <_>
      <rects>
        <_>
          9 7 6 9 -1.</_>
        <_>
          11 7 2 9 3.</_></rects></_>
    <_>
      <rects>
        <_>
          12 6 6 15 -1.</_>
        <_>
          14 6 2 15 3.</_></rects></_>
    <_>
      <rects>
        <_>
          6 6 6 15 -1.</_>
        <_>
          8 6 2 15 3.</_></rects></_>
    <_>
      <rects>
        <_>
          15 3 8 9 -1.</_>
        <_>
          15 3 4 9 2.</_></rects></_>
    <_>
      <rects>
        <_>
          0 0 9 21 -1.</_>
        <_>
          3 0 3 21 3.</_></rects></_>
    <_>
      <rects>
        <_>
          11 9 8 12 -1.</_>
        <_>
          11 13 8 4 3.</_></rects></_>
    <_>
      <rects>
        <_>
          6 7 10 12 -1.</_>
        <_>
          6 7 5 6 2.</_>
        <_>
          11 13 5 6 2.</_></rects></_>
    <_>
      <rects>
        <_>
          10 6 4 18 -1.</_>
        <_>
          12 6 2 9 2.</_>
        <_>
          10 15 2 9 2.</_></rects></_>
    <_>
      <rects>
        <_>
          0 0 6 9 -1.</_>
        <_>
          0 3 6 3 3.</_></rects></_>
    <_>
      <rects>
        <_>
          3 14 18 3 -1.</_>
        <_>
          3 15 18 1 3.</_></rects></_>
    <_>
      <rects>
        <_>
          3 14 8 10 -1.</_>
        <_>
          3 14 4 5 2.</_>
        <_>
          7 19 4 5 2.</_></rects></_>
    <_>
      <rects>
        <_>
          0 12 24 4 -1.</_>
        <_>
          12 12 12 2 2.</_>
        <_>
          0 14 12 2 2.</_></rects></_>
    <_>
      <rects>
        <_>
          0 2 3 20 -1.</_>
        <_>
          1 2 1 20 3.</_></rects></_>
    <_>
      <rects>
        <_>
          12 16 10 8 -1.</_>
        <_>
          17 16 5 4 2.</_>
        <_>
          12 20 5 4 2.</_></rects></_>
    <_>
      <rects>
        <_>
          2 16 10 8 -1.</_>
        <_>
          2 16 5 4 2.</_>
        <_>
          7 20 5 4 2.</_></rects></_>
    <_>
      <rects>
        <_>
          7 0 10 9 -1.</_>
        <_>
          7 3 10 3 3.</_></rects></_>
    <_>
